d&c 8.860429 -10.345505 -5.003143 -8.897328 6.178331 -4.182247 -3.565791 -3.226473 10.738984 -9.44266 5.339282 -9.236042 11.488672 -5.521247 -8.554962 3.717415 10.902098 -4.867954 -5.453822 -2.237102 -7.481344 9.666034 8.465854 8.309418 -6.311351 -3.991932 9.656048 6.542666 -6.312576 7.530069 -11.320599 1.018162 9.972563 0.966207 -6.687491 6.424881 11.72647 5.902281 -7.747164 1.022991 9.94387 2.461564 -5.596371 -0.560927 -8.809068 -8.133433 6.453381 4.431854 11.779908 -9.639174 8.958582 -2.078822 0.470383 6.52956 -5.619318 -7.997383 -9.074605 11.362679 7.520389 -11.150157 -11.982111 7.458362 11.534603 -1.663472 8.700156 -3.429942 -8.78653 1.889258 -11.48392 -10.745491 7.437237 10.512617 0.953228 -3.316986 -3.275219 -7.892707 -1.301022 8.732921 -8.47215 -1.86825 -2.517901 6.280933 0.417268 -1.66233 -3.451658 7.174582 0.549531 -1.260891 -11.064157 4.662858 -10.205601 -11.845069 7.58327 0.121692 6.646298 -3.406162 7.920882 6.714672 -3.465481 6.430949 7.961818 11.184063 7.389388 10.754606 -10.971857 -4.728117 11.313779 2.441736 -11.886628 -3.674516 -7.048487 -1.550162 10.500342 -3.553239 -5.363608 -11.506717 2.620544 11.09882 -4.352201 1.701367 -9.741833 -10.61141 11.890957 -10.964796 -9.930681 -8.701403 1.062187 11.170248 3.004084 -4.054237 -1.148386 -10.76908 -7.41378 11.499807 9.97803 11.193498 -8.877453 5.698498 -10.157233 1.95313 -5.218773 -4.048295 -5.66837 3.980494 0.095322 -2.16911 -9.213861 -5.826665 -0.184777 -1.704674 0.407492 8.937799 11.150722 -8.68891 5.348893 -4.285853 6.310683 -11.426512 10.494008 -8.908849 9.865459 -11.15168 8.411582 -0.666859 11.824388 -11.997972 -3.781644 -9.426634 -0.562106 -1.904493 3.074676 11.107011 6.600896 5.971009 2.779336 11.146921 9.351422 7.566266 -8.577601 -7.915251 -0.674477 7.74467 -10.703085 -0.270062 -11.853262 -7.265009 7.262664 -9.82136 2.595591 3.328846 -3.502784 -9.105644 3.021748 9.788796 5.061807 -0.73822 7.828682 -6.025377 -5.048296 -7.695 
position/cuff 1.832585 4.180921 9.383944 3.188365 -7.340757 2.088108 -11.445409 -9.992375 -6.147761 10.948992 2.726604 11.983213 -10.087472 -0.452606 4.18659 -9.710366 -0.244733 -6.09805 -11.97435 -6.281664 -10.296244 -9.38094 10.245666 4.434469 3.776123 3.417921 5.461438 -9.331196 -3.873178 8.21899 -3.833804 -0.189644 7.403439 6.523188 -5.198542 -0.923748 -5.572268 5.895065 3.895637 -2.603731 9.008291 4.199099 10.309235 -10.639544 6.840625 4.82425 3.147909 -1.960851 -8.651083 -4.532217 5.178125 6.195645 11.97214 5.135378 -9.396452 -9.127249 -10.204343 -3.149579 -8.166231 6.545317 -4.42214 -6.84865 -5.599608 -7.008136 8.119853 -4.208164 -1.551051 11.749295 -1.425392 -1.855458 7.258545 3.475648 10.690469 10.645131 -7.98541 3.756785 10.132324 -9.80088 -2.416635 0.85384 9.92217 3.810138 -7.689324 9.599178 -8.310712 -7.225941 9.890226 -0.890409 9.818621 0.619434 7.120805 8.196344 11.734432 -2.439415 11.894822 -8.687337 4.454746 4.56565 1.034157 -4.409824 -2.799513 -4.772195 -8.387274 -0.023249 -3.75829 1.463853 -3.821393 -1.300868 5.311723 9.650266 -2.188 3.234682 4.818352 -8.857267 1.228746 1.687518 5.730032 5.211204 -8.837439 -8.074778 -4.58715 -8.741662 -0.967447 -4.956728 -7.156902 -1.224779 3.426093 10.685271 -2.481664 11.824137 -10.799537 3.457989 6.038401 -6.075852 4.030221 -5.858837 -5.273767 5.051121 -7.999403 2.602947 1.806824 9.049841 7.370722 7.292846 -11.438943 -6.908271 -2.096111 0.894877 7.519589 -3.102337 0.18551 -6.815316 -2.839566 6.281322 -2.877136 -7.654774 8.722284 11.154395 -5.655852 8.956624 -4.355925 -1.529026 -10.512176 -3.413325 11.789735 -2.325665 -11.60336 -6.630511 3.015478 8.045311 1.004182 0.17064 9.785466 9.937326 11.225243 10.898141 -1.559917 -0.78083 -4.565303 3.229532 -6.630505 -1.667526 -4.85693 3.486262 3.743648 0.206811 7.250365 -2.402493 10.598224 8.861292 -0.216798 7.056513 2.974592 8.857433 -11.706289 -3.516542 -2.539836 0.854036 -5.877901 -4.130195 
pt4n1 -0.125956 6.350759 -5.501766 1.790012 -5.008737 11.292967 -6.018985 11.82745 -7.902631 -6.453578 1.007752 -6.827733 6.81355 7.336297 -9.650791 -6.190073 7.030897 -5.419088 8.039402 4.930029 4.940896 -1.363422 -2.127323 0.146021 -9.952377 2.305829 1.834043 2.827287 -2.304407 3.047265 6.852157 11.306084 -9.954375 -9.838798 -10.962195 -1.067302 7.579539 -6.688789 -11.905836 -6.086834 -10.887063 1.077606 -7.141451 8.574805 4.943747 6.324857 9.958811 1.165767 1.162648 -5.999152 1.340975 11.505755 -6.700041 2.571844 4.948142 -5.234039 -9.618043 -1.367048 8.10413 -10.632731 -7.881908 5.319815 1.178752 -8.553359 6.338947 6.983211 3.885074 -2.447398 4.953272 -0.82585 8.082436 -8.808368 2.590825 -3.676959 -0.767556 -4.441755 -5.253785 9.582378 -0.321394 -9.757567 11.637372 4.138398 -3.306327 5.919138 -9.859309 -1.116963 -11.237752 3.985317 11.063365 -10.326494 4.839607 1.82111 -3.338168 -11.5073 -0.648857 6.812569 -2.286293 -9.340371 0.470279 9.484333 -7.400974 6.824949 -9.263875 -9.948421 0.745023 9.822673 -8.654412 5.411508 7.437156 -3.464978 8.478113 9.055567 10.397477 7.763333 1.784617 10.594555 -1.320073 -11.316097 3.695671 0.549674 -2.669455 0.803545 1.477372 -2.226451 -7.090972 -6.584411 -8.013158 -2.673827 11.366511 4.393012 -4.147343 1.841647 2.92289 -1.258709 5.329018 5.382559 -5.514581 0.669526 -1.654139 -10.510237 6.798781 -4.975676 -7.699427 -9.403751 4.915249 -5.23315 -5.089606 10.184749 -7.278005 -3.240579 -4.031959 -3.970339 -4.838945 -9.536086 -6.883474 4.574799 7.425872 -8.759757 8.782556 8.959413 -3.183192 9.769065 -9.818622 -3.584121 8.086415 -10.291188 -10.170673 -5.276613 11.003725 -0.966874 -11.726185 8.112876 -4.484753 2.580632 7.773892 -7.520573 -10.721212 -1.814983 -0.562007 5.969259 0.494655 6.339241 -1.151111 5.969389 7.857248 -4.316317 -11.520694 -4.761017 5.098472 -0.306043 3.225121 4.382335 -0.007167 1.780073 -3.843514 7.074386 6.842555 -11.405463 -2.889367 -5.589422 
10.2 1.359424 -9.317056 -4.976391 -10.536165 7.508597 9.696544 3.921572 10.592357 -2.722055 -7.777795 -3.734253 4.252865 2.485035 -4.128875 -2.131423 -2.965115 2.632219 -4.396414 -4.127975 10.342569 4.468789 -10.647009 7.302443 -8.388483 3.31754 5.848352 2.489836 7.158981 -2.628403 -9.87968 -8.837185 -2.273219 -5.934296 -0.488164 11.303947 -1.512801 10.274695 5.100345 3.873654 -9.256958 -6.509739 -11.725474 10.284266 10.764023 3.27557 5.794377 -5.970762 8.162532 -4.804266 -3.000542 -8.853987 -2.077186 7.070573 11.916015 4.214432 -9.341504 11.79454 8.849672 -8.63397 -1.115632 4.117108 -3.36372 9.302994 7.04922 -9.324609 8.059478 7.599013 7.78753 5.219164 11.029446 4.577654 -9.69133 10.366904 -7.046727 10.837379 7.0533 -10.620061 -4.68671 1.015714 -10.292495 -3.659832 5.805674 11.658545 -4.623807 4.765307 -1.522461 -0.916059 6.178216 1.094041 -7.863294 9.903355 -7.263411 -9.378136 -2.105761 -5.61353 -4.001867 11.366898 4.035802 5.129414 10.527829 -10.006675 4.503819 2.509497 9.884046 3.318605 -3.891646 10.183067 4.891815 -10.920997 -6.829424 0.406496 8.592209 -11.473552 4.638584 -7.766211 5.356844 -6.921864 -4.198644 -0.332295 6.117458 -8.361218 -5.43754 7.614722 -7.128551 -5.636206 4.821159 -6.982346 -2.414797 2.530148 8.844435 10.813111 -4.672022 -1.169866 -11.400565 1.384461 -1.069964 -0.198403 -11.148266 -0.045597 10.669674 -5.743259 -9.579195 -1.115346 3.454718 4.469984 8.319952 -8.876262 -2.324998 -9.466192 0.593976 3.067276 2.36328 8.689976 -10.496286 -8.1314 -11.487036 3.591912 -6.70742 -0.238986 6.362001 -9.647476 -7.893861 6.226362 -0.836827 4.880118 -2.278297 1.868108 11.422002 -9.596446 11.580868 -10.37951 -4.20559 8.236188 7.203846 -4.551217 1.79721 -4.273388 5.400395 -10.030851 -10.804565 -8.007385 -8.221933 -11.560039 -6.608544 0.43324 7.884458 -2.65004 -0.648207 8.162259 -2.093943 -0.647996 6.568424 0.404799 8.182243 -9.435345 -1.737634 -3.452685 -11.121091 -2.712775 7.498237 
pt3n1mx -6.070476 -7.997859 2.947395 -6.910583 3.615374 -2.481698 2.623935 7.134407 -4.721471 1.682816 11.760477 9.735885 -0.013677 -7.234111 11.709764 8.914911 2.064539 3.199331 -10.478797 6.943677 8.373837 -4.2454 -9.091991 6.281127 7.227076 2.698086 5.603651 -2.993301 11.825207 2.955648 -0.659238 -2.891592 8.48787 -2.845695 8.459093 7.192391 6.103259 -0.005054 1.672558 -11.857989 -1.879772 -2.254153 4.798818 1.965505 -9.945883 -4.267268 -5.721687 -7.467841 -6.123881 10.537058 -9.916893 -11.892125 5.80455 -11.799893 -5.860724 5.561966 9.914726 9.066449 -1.339885 2.827942 10.632663 -4.013735 -2.189234 -2.338012 -7.42379 11.431916 -0.101603 2.953767 -7.644326 6.670162 -0.194564 -6.19486 -8.155558 -3.532719 -3.343157 -8.696707 2.078534 11.890359 -2.264189 2.375744 5.34245 -0.396113 -7.564242 2.325605 0.147139 -7.353196 -10.440143 -5.393566 -6.295676 -8.989 3.552858 7.106933 -6.850126 -11.571706 -1.726675 -2.323304 -3.832654 8.608773 10.687902 -4.164848 9.811254 5.759378 -2.607378 10.566768 -6.771926 -7.452484 -9.860264 -2.183467 -2.378597 7.760433 0.571962 9.76067 9.206156 -2.252974 3.139491 -2.861524 -7.95488 -7.685317 8.698543 5.892096 -6.440412 3.089724 -8.436327 -3.927989 4.15429 4.435894 -6.190503 -1.573064 9.795209 5.861354 -9.609083 4.307771 -9.47262 6.43051 9.174378 -6.523836 -5.18186 -7.967015 9.246136 2.119231 11.259779 -8.552034 -7.113085 -8.167152 -10.436042 2.978081 -6.624174 3.546934 -8.07128 -11.98706 -9.6902 4.32703 -4.242683 -2.781637 -7.601728 -8.302542 -0.643443 -6.866716 -9.283746 -10.407768 11.640796 3.792253 -0.827595 8.250894 3.016114 -2.422609 -4.527887 -0.662676 -10.482296 -10.160399 7.129063 -10.729446 -4.078116 8.914747 5.102198 6.217525 -8.047389 -1.003506 0.408405 1.408688 10.85082 7.91341 2.584714 -0.601736 -10.526676 -4.806143 5.147226 2.601935 5.736458 -4.111815 -7.782582 2.905666 -3.381898 4.453619 0.259924 9.350284 6.080135 8.593218 -8.600681 -10.142585 
12.8 1.171817 1.276187 -3.94313 -1.326734 10.223044 2.252784 -1.32834 7.667728 11.434838 0.212982 -4.956068 6.837159 9.322885 3.324006 -8.63808 -4.679792 0.36838 3.217776 11.246899 4.946919 -0.121154 7.585253 -11.825405 3.802315 11.460065 11.370593 -5.595444 1.496626 -7.35132 8.14398 2.072509 0.795204 1.153451 3.56792 -8.625832 11.972166 3.801625 9.957744 2.792403 6.712695 6.685272 6.772971 -4.906893 -2.400091 -3.849093 -9.537844 -9.661457 -4.816898 10.174146 4.419761 -6.559613 1.335138 8.309583 11.899521 -1.201881 5.067691 3.804498 11.564747 -7.658145 -4.81603 -4.38652 0.941904 -0.177843 5.109507 -1.050557 3.379765 9.462773 -9.047477 -7.345028 -10.797616 -6.884277 -5.693681 -7.923609 -10.419967 -7.168434 -11.482916 -10.72866 6.228242 1.281137 11.101443 2.279116 5.38096 8.738458 -10.290984 -2.16852 -1.430167 4.357983 -5.513823 -10.719973 11.577518 -6.747225 -0.091834 3.664698 10.518886 -0.596369 -1.892384 -5.253575 -9.660086 -0.297362 -6.56148 0.475345 4.109994 -7.541954 -7.524418 -8.235543 1.31933 8.460818 -7.140152 6.587038 -2.020963 0.23662 8.362428 -10.685453 -7.342532 3.380484 10.2491 11.860231 10.672283 0.894781 -11.510538 8.592031 7.493647 -6.775388 -11.434698 3.126863 -4.000068 -4.791867 -7.406258 10.016766 -7.436779 -1.567209 7.191684 5.985855 -11.972168 9.511868 -9.031007 -0.22455 5.481046 5.569183 -10.251179 -9.196806 7.301138 -2.256787 -0.425607 -1.259595 -8.69624 -6.204616 6.272509 0.760354 5.893653 -10.069356 -4.195016 -5.391421 8.964618 -0.288057 11.850142 1.794814 -9.123405 0.473636 -3.982548 4.104511 -5.825358 0.912274 5.809329 -7.723591 -8.199439 7.55669 9.905024 -5.908991 -0.616177 4.592726 -6.44748 4.263274 -0.215588 9.041377 0.815244 -7.568705 9.396132 -10.437442 3.131362 -5.818876 11.804847 -1.819824 11.104362 5.446366 -2.767904 3.99756 6.654561 10.769631 7.780412 -3.504176 -6.377895 -11.188687 2.832675 7.28108 10.622991 2.139639 6.043691 -0.830047 0.420552 
2.0 4.73437 -0.801796 10.276201 9.285792 -2.215042 -11.204573 6.284749 -6.219099 8.262405 -11.443862 -5.627173 5.111219 -8.607487 -0.865664 7.261393 -9.348163 7.556649 9.151359 7.653411 -5.534012 8.294579 -2.743659 7.839024 9.593289 4.982376 3.252789 2.521091 -9.403135 7.406842 5.417008 2.937983 -8.680708 -4.143701 6.970067 -6.866016 -5.991748 -6.503924 -2.749109 -3.248916 -10.066268 -4.304563 0.474028 -11.010632 -5.67048 1.621132 1.041585 9.406662 1.952708 0.811191 11.214743 7.001531 -2.234163 5.591036 4.536201 -8.452851 6.207262 9.092388 -11.26913 -9.582986 8.226244 0.283921 -1.101981 6.166921 1.720235 -6.178965 7.644063 -3.088992 -7.777276 9.670546 1.39109 11.053186 4.650992 -6.635449 -6.567818 -7.791348 7.634021 -5.613842 -1.609498 -2.826364 -4.598231 5.588191 -4.424926 7.57499 10.427949 -1.305557 -3.687895 -3.645368 4.979385 5.83146 -1.333344 9.517321 11.435957 -5.312682 -9.944611 5.593666 7.706089 5.292225 -3.912947 -11.956293 -10.726323 -8.43569 0.553325 1.349852 -10.626739 0.662296 0.828552 7.821384 3.501231 -0.16472 3.022867 7.156191 -10.068252 7.858226 10.06911 -3.42118 -1.882972 -1.709771 5.509901 -8.102635 -2.187436 -5.308931 -5.912829 11.095182 -8.521198 9.579952 -8.677626 6.096808 10.971712 -10.68114 10.111548 -0.87905 10.745658 -11.748726 -3.054648 9.556805 9.752878 -0.674445 -4.299903 1.573437 -1.065148 -0.919363 3.03177 1.695368 0.661746 6.270186 2.240972 -6.649041 0.687078 -6.450239 -5.93739 -8.076362 8.145684 -5.450016 3.170169 7.109408 2.833992 10.307161 -3.72974 1.407569 -6.527447 3.421213 1.499142 -9.655022 11.861736 -0.540757 5.418815 5.557633 -2.197618 5.021474 -8.753779 4.126793 -3.635788 -11.465254 10.035055 -3.409697 -3.454332 -6.762786 5.365587 9.823187 0.579841 -6.033733 9.68386 -8.494928 -9.897952 2.260215 8.767563 8.165386 -2.894417 -0.067366 5.881804 8.820739 -1.926911 -4.323219 1.023956 4.992343 -11.118062 -3.594139 -2.757313 -4.585274 -9.95705 
18.0 4.933406 3.352211 4.020478 -11.457294 2.246453 -7.551249 2.809173 8.020669 -9.977358 -5.527873 -7.017938 -10.776764 5.190788 -11.358672 6.247561 -2.362187 5.232942 9.928871 -8.523986 -1.079082 -3.425649 -11.175333 -10.094387 -0.804743 10.806216 1.476067 -5.125156 0.501682 -3.365455 -6.123295 -8.419784 11.652831 -2.653153 -4.887326 -9.368502 -6.553765 -3.763141 6.760512 -1.799873 0.655584 -8.174072 -11.632562 -10.670142 -8.570208 10.868107 -3.469827 -2.497792 -0.30957 0.02446 -6.575349 -5.177356 -0.170938 -7.259479 -8.275143 -6.783071 -4.533098 -5.740733 -9.315045 11.800466 3.250221 0.850427 -1.255187 -10.89309 -9.384214 -10.764628 -4.645027 3.135782 -0.828363 2.835263 -1.196946 1.202227 -5.200628 -9.131404 -10.340511 3.345505 -0.204908 8.472686 -4.953523 -4.42374 -10.672919 -7.07789 7.269932 0.516013 2.199239 -7.334481 -8.559842 -8.994193 -11.629795 10.300714 -9.457069 -2.965684 4.889074 7.756288 7.008589 -4.140769 -10.130475 -0.153427 7.162669 -6.530886 10.835133 3.0151 -4.972407 6.556383 -0.770452 5.480168 2.780797 5.945523 11.096205 3.144609 -1.23932 -11.055951 2.893114 6.530219 0.247662 -6.642812 -2.880727 7.645822 -6.666424 9.930683 -9.109875 10.096311 6.028584 8.759562 7.810469 10.888496 -2.659307 -3.275844 -10.545854 -1.712003 -5.601047 7.288074 7.470757 -3.270125 11.777283 -0.983707 -1.199376 -4.815889 10.011877 -3.055039 -3.309875 7.525514 -2.108979 11.45793 1.160483 -3.643962 3.432137 0.598496 -3.705979 9.375948 -8.453227 3.76825 -5.837164 -10.201285 4.230209 -0.46163 6.435779 1.452945 1.698302 -4.17785 10.660568 -8.886916 -5.769912 10.930973 0.928798 7.249103 -5.439348 -2.94062 -3.907456 -2.216239 1.504669 1.518337 -1.087788 -0.405465 7.076969 -4.440786 -3.523815 -10.60432 5.712444 -6.095533 -2.056188 9.284395 7.273502 -3.875606 -11.875837 10.633434 -4.630747 7.77284 -9.386044 1.160992 -10.903459 -7.281894 6.178974 -4.092897 -4.351158 -11.621208 4.774235 -4.505753 3.32504 6.597727 11.059125 
3.3 8.448277 11.305982 0.660568 -6.525377 6.504236 0.152669 -8.51089 -6.089304 -11.279945 3.315896 -10.687232 6.702885 -0.130426 -10.966951 -10.854868 -11.841978 8.984755 -0.176252 -4.834053 3.019975 5.065393 -4.618071 -11.367718 -3.752755 -3.12691 -8.002069 -3.783879 9.185178 -3.625346 -4.269962 4.689019 -9.323509 8.798562 -8.619071 11.647919 -2.135245 2.416549 -5.079628 8.49966 10.406411 4.06081 7.331468 9.195143 11.517828 -1.964248 6.943668 -1.772452 -4.255145 -3.518314 -2.848255 2.182474 10.553263 2.396243 -4.994188 -1.348761 -5.200602 2.417788 -8.506548 8.592091 9.851301 -2.876507 0.420922 1.247474 -11.408489 1.993213 3.636365 6.498929 -6.25632 4.338717 -0.076123 6.064678 3.926081 -7.603734 9.233238 2.218347 -6.453988 -1.571015 -3.00398 -3.269267 -10.889932 2.083894 1.114762 -2.490046 -2.263854 3.396912 -5.2022 -2.061223 -10.385975 -11.26242 9.748322 8.181319 -5.127718 -10.366308 8.302095 10.754787 -9.229761 5.814451 9.944324 4.435355 -0.655416 5.95922 -8.778033 11.090685 0.601247 -3.462646 0.403823 9.305092 -11.945967 4.773058 -8.673392 10.686719 -8.127528 -3.832359 -3.29879 -2.480397 -5.887721 0.15998 -10.260791 -6.053126 0.462729 -6.59557 -3.704284 11.144838 9.656241 4.793877 -10.189478 5.971066 11.146349 3.754064 4.165459 2.343109 3.871202 -10.516274 -8.838152 1.127851 11.880682 1.713554 -2.342185 -0.405029 8.316143 -4.79458 -5.508783 3.51142 3.692715 -11.388277 3.149841 -0.27274 11.645087 5.463182 -3.263509 8.626624 -0.741438 -1.048183 7.112504 2.091042 11.818177 8.824308 -9.810835 -2.354234 1.269574 -1.900661 6.172474 7.233194 3.896257 -8.528984 9.152581 9.580926 5.678828 -9.841166 2.76522 0.405406 -0.487306 -10.386872 9.738348 6.71557 8.921723 -11.116595 -1.026826 -5.745672 -11.883798 1.605336 -1.605319 -5.360827 4.204462 -9.53932 -0.857312 -4.963383 -3.921596 -2.387183 -9.239573 0.228629 5.954142 -2.980998 -10.126433 2.702642 -2.2401 6.668933 -11.561472 -3.079815 3.524229 
mopp/abz 1.697582 -8.025102 -6.807415 -9.371426 2.968775 -0.717337 -7.384345 -8.750864 -3.87564 -3.019057 5.288703 0.523899 -8.757713 -11.209175 -2.433345 11.941691 -4.854655 -9.179159 4.367482 5.160989 1.050744 -7.800415 3.580622 -11.072784 7.64916 9.235866 -6.604549 9.968142 -6.149691 -1.127216 -8.10764 -8.292027 8.330549 7.537993 7.512394 -11.648359 4.666433 -5.421587 -6.955144 2.351746 -4.763394 5.303529 -5.45428 4.481538 6.222843 1.247424 -11.876867 7.698274 7.939471 -11.404456 -2.200274 2.692191 -2.631119 7.808225 -1.315125 0.477326 11.17923 -5.691135 7.463524 1.591296 7.648911 3.690613 -1.268422 6.432131 10.820785 -8.76862 4.981357 -3.028836 3.857591 -3.407119 8.063984 -3.458065 6.968447 -5.584601 10.729083 11.615995 2.424713 -1.894132 -11.634463 5.437434 -4.918016 -8.547179 -0.659456 -7.9011 1.473398 -9.212312 9.357615 -8.897184 -8.06212 9.247862 9.027604 2.662414 0.395374 -7.717107 6.370303 8.958188 -2.720425 7.881096 9.237576 -3.723741 -3.212908 2.079821 -7.32758 7.416115 4.05E-4 -9.841457 8.991809 8.966105 0.590441 6.499877 11.904595 -1.993971 -0.296988 1.43958 6.249177 -2.492931 -8.718208 7.512497 9.959109 -8.83973 -3.521029 -11.662602 8.638215 10.575721 -10.046864 -1.030457 3.650267 6.755486 3.752379 -5.114223 1.901664 -2.545672 -7.870932 11.85289 -6.480952 -5.496844 1.031159 4.76591 -11.602836 4.381094 -6.836651 -3.871065 10.115779 9.282993 -10.590171 -7.812951 7.997848 2.640155 8.058817 8.803803 -6.895406 8.512961 6.667489 6.014693 11.736598 -9.514943 -6.445615 7.772971 0.533413 -11.350341 -11.195233 -2.259899 -7.462311 8.989493 -5.67712 -2.940911 3.613196 7.912836 -5.136515 -2.115149 -8.620404 5.919024 1.123468 3.03173 -7.649763 8.327772 -2.127213 3.434213 11.232699 -8.282443 -1.247577 -8.797181 -4.624776 4.179278 10.765483 0.893084 -2.884355 1.702313 -8.364015 7.191504 7.312828 9.971071 2.108357 3.558222 -1.385898 8.561039 -7.090945 -8.547798 -8.964427 -1.01573 
11.0 -1.509808 11.600548 -10.794323 7.245224 -7.176516 -4.640412 8.145732 -2.471242 8.411255 1.551254 -1.26527 -3.646946 0.3297 -3.755743 9.028998 -6.01883 8.518005 9.785462 -2.619158 -5.904135 -6.324578 2.972828 -4.176315 -4.296744 -0.973245 -3.402794 7.464684 -7.058154 5.865223 -2.33377 5.649207 -3.065649 -2.81994 -0.540539 -10.56496 3.03073 0.824667 9.149915 -8.56242 10.751731 11.579559 10.062983 -9.619265 4.453238 -5.887197 -4.270234 -4.288296 -11.807415 -1.760953 -0.27229 -6.588797 -5.510982 -9.973262 -11.112572 10.654178 5.63135 -2.798511 -4.219527 -7.750522 9.89683 8.942054 -4.511172 3.81038 3.506186 6.563774 -2.507243 5.381317 10.350721 4.732812 2.099631 -5.230415 -2.511703 -3.247085 6.172284 -9.895761 -4.884044 6.1149 -0.99863 2.167854 9.187898 -6.102525 -5.997858 6.820209 11.058439 5.756467 -4.49798 -1.643542 1.490535 -0.862051 2.221228 5.915728 4.08138 -9.000802 4.13475 -8.920433 -10.382466 -3.280131 -10.760247 7.573072 0.082962 -11.96582 1.338611 -2.49502 1.004321 -2.286629 -8.716451 10.85644 3.528749 -2.623892 -1.785094 -6.048379 -4.909639 0.202972 -11.839064 6.416745 -8.267406 -7.520423 0.952994 2.657573 4.114469 -7.208678 0.745907 -6.841184 4.939793 -8.65878 6.519275 2.932375 -5.990756 -9.739341 -7.228649 1.214744 2.306232 0.931429 -6.796882 8.037364 6.488366 0.235738 -4.473889 9.567141 -0.132719 0.299424 -8.386539 7.137781 -2.57947 -6.308028 -7.950422 -11.333961 4.590189 -9.804598 -8.280153 5.670406 -7.416268 6.152533 -8.582395 -7.616799 8.603716 -0.946463 -0.468346 -4.529521 11.893692 -1.58182 9.713477 -10.352418 1.698771 -10.820445 11.009245 4.001638 11.200136 -0.326463 -7.722309 -3.894311 -9.806212 -3.01333 -11.199193 -5.96736 0.74471 5.813596 5.830293 -7.849406 -7.741396 7.123586 5.398626 -8.895391 1.374258 -0.16582 3.059522 7.663355 9.790578 2.338358 2.308544 6.132558 9.603219 11.130127 4.270516 -8.189417 6.93671 -11.078168 -11.173652 -1.515059 4.618904 
15.0 -7.455071 10.687826 4.241915 3.355506 -4.425573 -1.985158 10.884986 -11.676612 -3.984405 2.005486 -1.968867 -11.687667 1.540014 11.475358 -10.522455 7.505771 5.656472 -7.221605 6.7047 -8.297968 -4.149378 -1.492556 8.405235 -6.761433 -6.874211 8.248753 -6.298571 6.092515 -8.474258 5.250488 -7.762409 2.591957 -1.881345 -9.798687 -3.392932 11.883112 -7.430026 -4.598971 3.597012 -10.240329 -5.169718 9.441181 4.507534 3.671421 -10.387246 -9.900504 9.325222 -8.309771 7.233166 -8.512062 -3.195452 -6.077608 -5.966071 4.580134 -11.465985 11.317319 6.011988 -7.920192 1.837424 0.033418 6.41892 5.177865 3.884023 -8.516968 -10.000027 1.081641 -8.345245 2.889165 -10.81278 -3.714175 7.435267 -9.352275 -11.039527 11.390454 11.279763 -9.000101 -8.76201 -7.142653 -1.586767 5.480256 -5.442494 -8.567721 10.813036 -5.682932 2.456488 0.046114 4.234218 -4.577666 0.359017 5.844074 6.716433 -6.180139 9.92509 7.578257 10.13372 -1.679252 1.716596 -9.065564 4.621879 6.966536 -10.317347 -11.54987 -7.258418 -7.778788 4.365422 -6.483127 10.008816 7.104227 5.875968 -6.454481 2.947689 4.41758 0.588159 7.709397 3.094064 -11.068997 -4.852956 7.766039 9.401925 -9.149814 -2.213424 -9.705844 0.27782 -5.896073 -3.900003 7.268459 11.992158 -1.052946 -1.695369 -6.769111 -5.510428 -10.913147 5.691265 -8.597285 4.644013 5.001728 3.346761 -2.082062 4.777659 -2.668276 -5.613079 8.944353 -3.213836 -0.818526 -0.164847 1.794559 -8.513767 5.887118 -6.069176 -11.784842 -3.175097 9.259601 -8.950287 1.878304 -0.636618 -11.472216 9.567353 2.685717 10.97174 0.165656 -6.10549 5.831204 8.944138 9.498933 -5.437502 1.653665 -3.23222 0.44724 3.634435 -8.851487 -9.447844 -6.030988 10.86702 9.591359 4.648625 -3.262809 4.945815 3.06376 -10.736215 5.284737 9.765466 3.75675 2.893554 7.319895 -5.875245 11.763857 3.178291 3.122118 -7.645233 5.661169 -8.697266 7.890461 7.29694 -4.491974 -0.662011 6.627223 -4.303823 -8.012186 6.9462 -11.39948 
1.3 11.472641 2.244268 9.642019 8.64045 4.484301 4.554661 -8.671626 -4.5156 1.290708 -3.682844 -8.902466 1.098037 -9.923032 4.915564 -1.688151 -8.640589 2.295254 -1.139324 4.752028 -2.29543 -3.270312 9.193278 4.144211 1.294011 -0.411175 4.469884 1.650578 -6.029765 8.878448 -11.261817 2.93163 5.737591 8.705767 2.745115 -1.838265 2.706574 11.314606 -11.793574 -3.097015 10.405627 7.549568 7.302508 -10.984191 -2.925523 -11.904387 6.651253 0.808262 8.013956 6.237917 0.844583 8.399321 7.278177 -3.964663 9.221276 -6.20502 8.955924 9.699217 -1.115373 11.449345 -1.001014 -1.38228 11.05942 -1.893603 -11.983844 -6.135676 8.718645 -1.508492 7.662532 -7.822478 -11.003694 -10.054761 8.214689 -1.702757 2.238615 -5.634608 0.63324 2.191914 6.631816 1.846711 -3.124761 -11.891455 3.180796 5.181086 1.429809 -10.473348 8.398595 -10.09547 -0.988672 7.995245 11.40286 8.850646 8.055433 0.480596 -7.798769 5.193744 11.124039 5.25089 -3.216434 -6.261803 11.536522 -11.527681 4.224873 -9.265935 -7.494865 0.58963 9.338748 -6.22755 -5.236332 -10.787449 5.507031 -4.662506 9.13931 -4.372023 2.147373 2.36536 -10.271397 -6.793783 1.86631 -6.316037 -8.700699 -4.131945 1.681388 -10.519305 -10.749088 -6.572185 -5.218173 -4.03124 7.927623 6.026046 -5.86686 -11.803748 -4.711769 -3.986116 -11.182937 8.465474 -1.10132 4.549609 6.334099 7.103478 11.923698 3.816306 9.181896 -11.651771 0.254995 6.168018 1.858642 10.888239 -10.875596 -11.339794 -6.973429 -9.883064 7.511304 -8.68125 10.906642 1.436501 -6.635424 -5.849812 0.061352 10.969323 -3.879714 -8.705692 6.558621 -2.191347 -0.79273 -11.131339 -5.904397 8.463499 0.193646 -0.047012 5.997205 7.426233 -2.061692 7.810002 -10.909937 -6.185212 -11.427666 -11.162618 -6.711359 -9.18518 -2.653799 -2.105682 -8.683953 -9.829408 3.339629 -3.455675 10.318128 -3.753193 -3.25817 -10.595466 -8.784674 11.207036 -0.129157 5.190072 0.472694 -1.372156 3.311617 -2.809414 0.554458 5.391134 9.513397 
vitron-c -5.185566 3.665395 -9.029324 -6.102057 -2.515559 -7.53272 5.252237 3.991021 -3.43237 11.294559 -5.199867 -3.699436 -3.830287 -8.020645 7.006506 -1.374177 -4.476398 -4.268143 -2.166978 -9.807229 -5.650379 -5.391917 -0.121839 1.471974 -4.036454 10.932909 1.276677 5.746044 -0.94297 -3.367738 -5.538735 -2.545224 -8.026589 2.764223 5.089904 -11.94304 -7.049661 -5.375176 1.465771 -5.391162 0.199104 5.64017 5.550081 9.470085 -1.161046 9.842506 -9.808386 -2.490866 5.603174 -7.936214 -10.529835 1.890626 -3.1179 7.066203 6.074563 -5.011328 -10.933307 -8.334877 11.409342 11.180568 10.304731 -8.51424 8.647614 7.236546 -4.319879 -1.669092 -9.778912 -10.267937 9.474268 -2.777058 5.261656 3.370095 -7.433132 6.019269 -4.717622 -2.688191 10.181938 -0.913661 5.909157 10.574947 -8.916665 -8.146746 -1.252202 6.270187 3.972445 1.151958 2.494639 -2.093326 2.239162 7.08693 -3.82769 1.208877 -11.634268 9.763244 -10.104325 11.847823 0.181439 -9.462229 11.846417 -10.799259 10.814588 -11.455715 4.15816 -9.285935 2.586643 5.079113 -8.812513 -1.344322 2.241841 -4.980043 -8.830385 11.003221 -1.195973 -4.213578 -3.469033 6.926247 -1.999111 8.436741 -2.845734 -3.2191 -9.40577 -1.668891 0.665267 6.746774 6.103322 -3.622013 2.33365 -6.803483 8.306853 4.215669 -5.545972 -4.400294 -11.44261 5.76735 -2.903503 -0.776574 -4.659254 -8.556141 2.889552 -9.897035 -4.33895 -2.145835 -5.978354 -7.283074 11.730766 11.219705 -6.078864 5.512046 -4.906638 -7.22549 11.097729 -5.116108 -10.295263 11.269054 6.402056 -5.569389 -0.352029 -8.718312 -4.516615 3.257769 8.054395 -5.622563 -10.501054 8.823328 -0.547573 11.239913 -0.848239 -11.727308 -5.835973 -11.262003 3.907344 -8.575289 2.5171 6.474912 11.763024 10.530482 0.540587 8.703217 1.217127 0.637697 -10.542571 -6.424781 -9.891337 -6.14575 0.689028 -1.465789 11.771608 -0.984271 2.233267 -1.762099 5.471314 -8.777615 3.176588 -2.258676 -6.635976 -2.577922 -7.250941 -9.247531 4.243863 10.676658 
6.0 -7.270195 4.609792 -8.884807 8.960167 -0.841384 10.21672 3.151572 10.298193 5.207982 4.504201 -7.123943 -7.231367 -0.281773 11.078263 10.420991 5.345068 1.296883 11.54552 -1.501116 -2.225105 0.031856 3.59548 2.23939 -3.354721 1.766376 2.254431 11.320877 2.500959 3.532185 9.811671 1.848471 11.33883 -6.864191 9.754718 2.203927 9.015225 1.04125 10.63613 2.616107 1.06269 6.590834 5.130473 -1.525727 -4.875961 1.254402 -6.37409 10.42986 -3.327623 10.995461 -9.469148 0.105814 6.896738 9.991375 1.06201 6.756024 -11.406093 10.843065 -9.383855 7.490822 7.617946 -7.941817 11.913762 -0.292055 -8.100132 1.990112 -5.061101 -4.858191 -6.73914 -0.436389 1.285136 0.467371 -6.796637 -3.983645 5.853855 7.668295 2.57529 8.534047 -1.063259 8.402578 10.463575 -5.944764 -7.449557 8.372229 -8.115811 -4.329605 -1.522749 -1.772976 -1.203296 -11.061742 -10.198417 4.805813 6.682425 1.090846 6.818017 4.542275 -10.613978 8.497072 10.022543 -2.364526 8.131567 0.903215 1.484619 -2.891028 -9.415197 2.867025 -4.766386 1.155748 -9.455606 -4.54936 1.379086 -9.810446 2.305872 8.635931 -6.479667 5.796804 -0.047086 5.074357 6.586569 -4.693468 -3.208476 -3.318204 6.585022 -1.03062 5.853631 7.23732 0.820184 8.760023 -11.142432 -7.456736 -7.016617 -1.409131 -7.776203 -1.147591 0.097791 -8.751681 -11.294764 8.166529 -10.3601 11.636302 -8.097581 -10.34102 -6.755537 -5.064769 -3.60528 1.872462 8.235805 4.05799 10.429759 2.491504 9.814379 -0.692039 11.074076 -6.612307 -6.936656 -1.582431 7.439082 -5.715957 5.02591 7.169252 10.057246 10.783424 -11.059889 -10.425813 -10.305604 1.65432 1.303629 -1.892436 2.844963 8.165695 1.777184 -1.227391 11.867942 4.911129 -3.978986 -9.21097 7.182258 -5.039133 0.394821 -7.525042 7.15118 -5.671173 -8.962421 -8.585067 -7.753639 -0.359927 10.179468 -1.720126 -0.206982 8.532681 1.624189 -4.31153 8.058701 0.726383 -8.824181 -11.727191 9.65904 -7.161214 4.370311 1.634534 6.214795 
5.2 11.928429 -8.792307 -5.848758 -3.094522 3.39234 5.666944 -3.38372 -8.974256 10.244252 -9.378539 -11.531468 8.861684 -7.052003 10.358989 7.892215 -5.834889 1.879111 -10.754211 8.340177 1.21484 4.136065 -11.839202 0.057565 -4.085085 -1.178997 4.161433 -4.043765 11.590676 -5.941705 -10.571342 8.713671 -5.895507 -3.082345 -11.125151 -11.75637 1.623922 8.057006 -8.116043 -6.290836 -4.164007 4.298723 2.489358 -1.977876 9.612265 10.501302 1.880787 5.29666 1.090226 6.986965 3.467616 -9.002309 -10.152454 6.43413 3.811728 -9.451255 5.306646 4.542119 -7.420847 8.937029 -7.282042 -10.076077 5.245566 -10.623028 6.031206 -9.418747 11.626709 -8.633004 1.674986 4.96459 -0.609306 11.497647 4.725819 -0.980673 -9.454863 6.142681 -2.841154 10.76759 8.477949 -4.311859 0.83321 6.87372 -6.53339 -2.772115 7.576169 -6.710149 -6.34337 -5.322528 5.190871 -5.523527 4.345889 -11.96825 9.423682 2.841269 -1.00255 -8.98508 9.887904 -10.062006 6.739396 4.645297 0.651632 -4.384437 -8.803827 3.260422 1.658467 2.705985 -9.668147 -2.678387 1.360709 10.988201 -9.428315 -4.159511 -8.09439 -2.936682 2.80422 -3.456566 5.926215 -1.574818 -9.047755 -0.0866 -5.550785 -9.591349 11.636699 2.021894 -11.356771 5.846399 -11.956327 -5.412571 8.09182 7.163481 -5.559455 -3.029841 -1.013482 7.287345 9.873221 -8.164157 -4.903945 9.149433 10.412429 5.995734 4.578939 -2.297095 0.902877 6.452433 -3.332545 1.279504 11.505122 0.955152 9.962099 4.756993 -6.594151 6.391317 4.536395 -10.592976 -2.09177 -6.885171 1.262998 9.441776 -2.300005 -7.165224 5.732886 1.17608 0.432732 7.961815 -7.149573 -10.62976 8.831919 5.332861 -0.351995 2.71716 2.39309 5.0082 2.074859 -7.414158 5.305513 -2.641467 8.475691 6.031755 -8.419343 2.932925 0.185583 11.733005 -10.551317 -10.377924 -11.871347 -4.090317 2.922148 4.404733 -10.481157 10.432201 5.011997 2.488541 8.722171 7.222867 -5.583081 -7.069959 3.05071 3.703375 1.593029 -5.158033 -0.280509 
2.5 -6.560655 4.946804 -7.930552 -3.591534 4.281461 -2.519867 -5.259877 -7.167384 -2.798774 -7.447737 -8.633345 -7.565784 -11.332266 -9.490604 -10.796463 1.772198 11.810375 5.768581 5.333534 4.394514 -5.23925 8.528529 10.482546 3.940316 8.465556 2.615886 9.835098 -10.070278 -11.089366 1.061444 -1.853875 -8.840135 10.09479 5.836721 10.218127 -2.163129 10.240452 -0.232743 6.336244 -9.465675 2.626678 -7.025078 -2.472806 3.779767 2.07842 -2.712521 11.531502 10.531639 8.544446 5.889555 11.151842 -6.979907 -5.655287 8.075144 -1.836214 -6.614024 5.566444 10.297671 4.248666 -9.736743 10.736601 -11.200384 -2.568289 4.911104 3.296863 1.939604 6.282046 6.712736 -7.444314 -2.079173 0.654585 10.819142 -3.309575 -2.039412 3.027285 0.426666 -10.979027 -3.973295 10.510656 10.638426 1.174773 -9.897566 -7.620107 0.070431 5.911529 -9.472465 -4.496625 10.324252 -3.725656 -9.700992 8.31478 -3.84101 -9.617508 10.300998 -1.00055 -7.343761 -5.420563 -6.730728 7.3391 1.88271 3.798154 1.881646 -11.817583 2.516057 2.904264 -1.298367 -2.217509 -4.389559 -7.5741 8.788567 -5.734501 -9.860715 8.477703 1.623353 6.26848 -8.836415 11.834725 -6.415028 -2.692523 -2.564865 9.010522 9.548762 9.710773 7.954909 -9.157904 -11.736522 -1.024646 6.4678 -8.517181 7.000036 -8.821784 7.085869 -1.147096 -7.449188 -11.402466 -0.806833 10.495417 9.994277 -4.027854 9.496155 -5.565744 5.72571 -6.14871 -8.455343 -4.97101 -0.909343 -1.740103 -5.740743 6.969853 7.543741 5.428249 2.961938 -1.545359 5.59137 -5.391792 -2.882239 5.237712 -2.137178 3.02166 0.45625 4.639695 7.490137 2.760288 -4.64785 8.754977 -5.436842 3.979186 6.306112 -7.007532 -6.23797 10.00028 11.076841 -4.26643 -8.644624 -10.035022 -11.522863 11.289738 9.588341 -6.551129 7.057231 7.490428 3.070581 4.974773 -1.140265 11.130689 1.110273 -3.366182 -4.85852 -8.843914 -3.973894 4.047766 -1.581577 -1.138934 4.305183 -11.320887 -8.599208 8.525346 11.060689 -1.980978 -9.65349 
satting 4.811298 4.579128 6.456562 10.071944 4.893787 0.832838 -10.343856 8.319906 3.692328 -0.330516 6.043503 6.39581 -6.276136 -11.023879 -5.476005 -7.056199 -3.007076 -11.548638 7.830443 -3.554372 6.984347 -11.294843 -10.078829 3.48596 -5.777816 -1.758416 -2.377671 -11.961228 7.006851 -11.533982 1.232022 -6.009601 -4.158977 5.193971 -11.922763 10.825757 9.703206 6.224834 -10.962062 -3.134825 -9.273634 -7.620309 2.826205 11.650253 2.987414 3.988319 -1.668333 3.038044 11.011808 -11.853593 -8.382032 11.273837 -5.754052 -11.850012 5.178409 9.773748 5.14849 5.349995 2.832353 -11.440758 -1.299858 3.255805 6.167441 -6.753327 -7.970063 0.052562 9.706065 -3.794144 2.504418 -3.216988 -10.001986 0.962618 5.024614 -1.719476 -7.385366 10.131215 -11.575893 -5.474103 -11.456722 -10.876551 -11.240054 -6.563501 -2.245738 4.592239 -2.063399 0.182238 2.735989 -3.971641 9.501552 -9.04125 -5.432679 7.139967 -6.400391 -1.265805 -11.38026 0.605515 -6.02856 6.821939 8.255256 -10.498458 11.53024 -6.782638 -1.090531 -2.832187 -6.55107 0.472947 1.722635 8.483182 -4.161319 10.471779 5.404995 7.486511 7.998023 -7.204512 -4.70389 8.987909 8.860214 -6.531392 -10.398669 -2.723516 -4.334999 1.697297 6.56202 3.241763 5.029327 7.806252 6.839526 6.18684 1.489985 9.91362 -1.333593 2.322272 -5.760344 -4.030346 7.341782 -9.609326 11.176204 -6.379245 7.421175 -5.917092 10.533528 -1.053467 -4.525398 10.867676 4.260739 -1.546585 -0.439844 3.5673 3.964831 -5.205702 10.583706 -9.526627 -8.369528 -8.480356 4.48883 -9.993066 -4.521014 -2.248597 -5.255509 -3.111267 -3.772993 -7.992964 11.871443 -11.503896 0.653753 11.486879 2.771751 -1.456104 -10.215703 4.974021 -2.600719 -1.562144 2.144625 -11.918199 -8.167567 -9.390226 -3.557249 8.919959 -10.91616 -9.145318 -7.321434 -1.663555 -5.994828 2.151273 4.083538 -10.272216 -3.581339 4.657709 -3.560164 8.996868 -6.869651 5.535881 2.226866 -4.427034 -9.246448 -4.031871 6.691659 -11.50532 9.294426 -4.808613 
pt4n1b -8.66202 1.392527 11.224977 -1.415369 -0.522524 -11.206257 -11.707687 4.806461 6.384609 1.507866 -3.413668 7.690578 -2.754456 0.937563 11.411509 6.067863 11.489648 10.995146 5.281887 -11.105319 -5.759381 11.891105 2.88177 -1.971984 8.522786 -1.603017 4.108123 -11.301089 -6.49352 0.270798 -9.665947 2.196706 -11.525135 -5.630799 -4.193775 -7.512578 3.343047 -1.443529 11.612496 -3.549348 8.458691 2.856388 -10.070527 -1.869797 -8.938162 -4.621024 -8.716838 -5.145308 11.180066 -4.609979 -0.670713 11.295243 -10.116492 9.47724 -11.816678 6.488348 -6.277214 11.102883 10.603682 10.562926 8.821237 0.918502 -2.644992 -3.628496 10.491352 7.05356 2.851857 8.436436 1.393705 11.175487 7.706597 1.582963 5.155142 -2.545273 -0.92129 4.341899 11.011404 -6.345742 -9.253828 9.665621 0.437807 -5.600993 -3.407015 -8.287976 -7.119953 2.266509 5.730407 4.412007 4.595622 -11.323874 -11.257168 -4.753008 -5.735194 -4.35997 -11.427265 -9.876043 7.428557 -0.724859 8.332518 0.446337 -11.040849 8.56112 -2.145462 3.440147 -11.332185 10.165462 9.064037 3.505575 11.80202 8.242672 -6.716881 7.825252 11.583578 2.950443 7.347378 7.671333 -2.912915 7.011696 3.940198 3.814477 0.656724 11.987275 0.823189 -9.851282 2.707853 1.010028 -10.335317 -1.892794 8.158257 -9.433054 1.941596 -10.345317 -4.117634 6.501968 0.913478 8.603528 4.480201 2.747996 2.940928 -9.288856 -9.698777 -8.617397 0.444058 0.477374 9.061708 -10.562152 6.570085 6.771588 10.542713 9.480568 -11.837424 -9.619966 -7.245867 -4.684569 -1.101678 2.274931 -10.401227 11.248983 -3.518755 9.867796 -3.531176 -2.81113 10.556171 -4.279635 -0.644459 10.438327 9.528755 9.147445 4.951375 -7.618012 10.751276 -4.143039 -4.127751 -3.654999 9.557454 4.233394 8.526094 3.743359 8.402875 5.081761 -4.697792 -4.770685 -0.108932 8.610187 -4.345561 -0.12833 -3.261315 -5.85988 -5.700376 -5.503336 3.756695 -7.505891 9.151162 -0.848852 7.69794 -1.777959 10.756017 1.235638 -3.655179 -1.212317 
5.1 -3.098074 8.190793 -3.515665 10.548256 2.709967 8.706814 -2.558878 -1.179218 9.926134 3.261165 2.612611 3.539808 5.273961 10.375983 5.973788 -11.027891 10.628716 1.322483 7.79256 5.664872 -8.57793 -8.914442 -8.179876 -4.735196 0.084644 9.237786 -3.005836 0.056579 0.482224 -1.042084 -1.783819 -4.970085 3.1999 5.764897 -8.962352 -7.00442 4.176819 -0.375572 6.113165 10.731498 8.592663 -3.079053 -6.947815 6.351113 -5.944577 -11.626081 9.824367 -10.952918 -9.961535 -0.686787 -10.853007 -5.925693 -11.836684 1.814309 -8.693622 -3.702742 -1.676944 4.03 5.6386 0.837488 -3.210384 -11.358806 -9.581669 -4.681861 6.346734 3.685357 -8.822003 -1.086765 -6.861245 9.107103 -5.497092 10.870439 -11.676104 3.21132 -5.878547 -2.613076 -11.230962 -9.2148 0.632896 8.678927 -0.078454 -11.00851 7.488729 -8.203483 7.642043 2.221154 9.866999 -4.804003 8.180524 4.929658 11.85244 0.293361 -1.37339 -3.933044 6.858691 11.183113 -5.936804 10.047237 8.502327 6.417715 -3.698827 -4.709587 8.16184 10.203873 -7.528641 -9.796742 9.228179 -5.417214 5.89818 -1.945922 4.576864 3.122449 4.578117 10.530673 3.065153 6.361008 6.234349 10.857361 -11.118843 -8.298863 11.31746 -2.817291 -1.65475 7.66631 -9.529476 1.535578 2.287551 -11.609208 10.87532 2.983048 4.398695 10.926141 -5.455143 1.709679 -5.02545 -6.592126 9.025833 -10.426452 -8.751035 -9.663013 -2.876907 -5.719589 -1.967908 -1.808133 -6.843426 -11.34672 -8.354775 -1.702872 -11.090313 -4.439334 6.16659 -5.663177 -1.173504 -1.097373 11.775906 9.110402 11.163512 3.639764 8.508999 -2.909227 -0.299654 -10.813819 -0.9928 6.054702 -6.738091 -5.426589 10.86966 2.516764 5.703286 0.628213 0.990195 -6.091014 -6.843173 9.993106 -5.216328 -4.590743 -7.760516 10.154438 8.480418 9.032515 10.566797 1.728712 4.690544 11.059661 9.318421 -7.906152 -11.786469 -10.9099 -11.251496 -6.962019 8.591866 -4.035278 9.432655 -3.565651 -5.819076 -5.48291 2.691696 -5.963255 -0.46923 10.571547 
ct. -4.969188 -3.674043 11.648966 7.817857 -10.418823 2.923554 -4.763093 3.15299 -11.570472 7.425305 10.265659 6.791525 -8.63035 -1.407514 7.280705 -2.092837 5.008121 3.675205 -7.401565 5.778699 -10.694856 4.227902 9.080659 10.374818 0.529711 0.113022 -1.553131 5.022939 0.256776 -4.525123 10.107391 -6.731652 9.432571 7.301603 7.274033 10.240725 6.682618 8.779065 -10.371757 1.806162 0.935434 -0.02348 -0.899741 2.493677 -5.916617 -4.510247 1.336143 5.646178 -6.199487 0.503367 8.203049 8.456763 -8.214277 5.319838 -1.7935 4.512189 -7.40201 -0.261137 9.966894 -4.82374 -5.101153 -7.243497 -11.074116 6.606852 10.315726 -4.110475 -8.77326 -8.588798 11.288244 10.016313 -8.763787 10.905041 -7.842084 5.961634 8.448858 3.652086 3.410235 -3.861501 -2.461757 -3.578667 -10.623514 6.396275 -3.907135 -3.089438 4.851122 9.810179 6.098065 -0.454649 1.978929 5.483172 5.498653 0.373881 1.414675 7.517258 9.200393 6.538738 -4.843626 0.147091 0.641961 -3.982174 -11.398294 2.614763 3.592368 -5.7125 0.275612 7.700551 -0.897642 -1.728099 -0.674515 6.910366 -1.438353 2.40347 1.278836 9.156583 8.587373 -5.169489 -2.293253 2.35483 2.992519 5.768641 9.334851 6.695314 7.356531 0.703884 -3.207962 4.433149 2.743793 10.616118 -9.414506 -4.121901 6.889036 3.602498 -3.960851 -3.149881 -6.307779 11.241452 -10.16898 -4.79704 1.138863 -7.251253 -11.586608 3.104089 -2.214809 2.438083 6.998206 -6.404909 -3.279002 5.209607 4.938466 -9.457351 -4.553548 8.750659 5.234915 -5.573834 -11.627416 9.844042 2.54566 4.493998 1.678615 1.639977 3.474877 4.656213 -9.967291 6.95892 7.06515 0.067753 -8.793821 -10.346707 -3.683561 -8.308219 -2.115386 7.767155 -6.796868 -2.781066 8.00284 -3.306245 2.059021 4.554185 7.704039 -4.258137 -2.651452 -9.331116 8.546824 9.482706 -6.258958 -10.048452 -1.142526 1.960256 5.053149 -11.723125 2.147992 5.308607 2.023067 -8.1516 -4.705934 0.53103 1.028653 5.456149 1.690483 9.156335 
a&n -11.240098 -10.873405 7.87493 8.199005 -0.49527 -6.771864 0.134629 -8.689405 8.105425 -0.068723 4.383603 10.220756 -1.208402 -4.491388 2.121893 -1.472785 1.993862 7.295661 11.561409 -11.395005 1.890937 -2.780461 2.026592 5.866045 -1.158706 10.638372 3.511473 -1.188555 10.998909 10.820335 -2.201854 -9.720755 2.311116 9.727085 4.815142 7.001962 5.745005 -5.147666 -8.062405 -10.95132 -9.012778 -2.297764 2.704546 -2.06235 -6.989502 -3.909825 8.952159 8.166197 -0.201355 -2.24547 -11.364923 5.615729 6.170213 0.893871 -3.368438 11.750514 -3.960582 -7.949982 -0.398489 -11.260107 9.601414 -4.644675 -11.510111 -10.405515 -11.1726 5.496473 11.541531 7.117913 6.303505 -4.166986 -1.283277 9.936487 0.845811 -11.05517 -0.82959 9.080245 4.472341 9.468616 -9.018699 2.549674 -6.788759 -7.580566 2.59059 10.013371 8.872865 10.279317 4.433455 7.242855 8.311862 -3.029154 -0.980085 8.101651 -7.146155 -1.580446 -1.754919 -3.133255 9.45962 3.744958 7.982268 -2.628594 4.848441 0.20594 -9.964125 -2.080669 6.200124 0.862165 0.304359 -11.868992 -6.795629 -7.500879 -10.472891 -10.155887 4.124018 10.700348 3.262412 -1.099287 -4.812586 5.036321 2.767178 6.114969 -3.976448 -5.824584 8.222513 -10.074013 -1.998004 -11.691684 4.272672 2.201384 1.238129 -5.386849 -10.881649 2.368084 9.672628 0.574596 -3.571268 -2.492193 -1.967437 -2.193883 10.110117 5.265614 -4.370079 1.610453 -6.50757 -3.619128 7.851798 -1.150618 -1.231695 -9.63914 -9.155046 10.779766 -10.457079 -8.721748 -3.70415 4.348782 -8.87384 -3.115407 7.355721 1.027202 -0.277866 -2.807135 5.658704 -7.404485 4.944537 -5.606871 11.029423 10.383621 6.109732 0.426222 3.874938 4.300776 -0.467093 -10.248616 7.404346 -1.42161 5.576096 -1.195368 -3.282203 -9.515788 2.470261 10.355676 -5.544911 -9.647594 2.957101 4.432034 -3.907503 10.109927 9.56968 5.690025 2.124866 -2.934462 -9.1056 6.073195 -4.731517 8.063803 -9.56971 3.30969 -11.531339 6.192247 11.685004 -9.738961 
alk-phos 11.894404 -5.934123 1.920386 -2.654284 -7.749033 -1.700838 -5.516128 6.221834 1.639559 9.111523 9.935445 -10.375789 11.841869 5.098313 3.203296 1.712015 3.305549 -7.964801 9.774798 9.494137 -1.744794 -11.830182 0.452797 2.86036 -5.748099 0.790493 9.480707 -7.542668 -3.827409 -4.052259 -9.136691 -6.890695 -3.0206 1.040243 -1.516415 3.694531 -7.202997 6.562892 -2.860616 4.34912 -0.285104 0.650449 5.897125 2.581147 0.379728 -1.863696 0.183185 3.338705 3.841312 -5.318247 -1.192915 6.286525 -7.735611 2.117149 4.633986 2.506765 -10.983369 7.472228 0.897464 4.550461 -9.708181 -2.741167 -10.833025 -9.7729 0.825586 -3.594781 1.757843 -8.269293 7.40951 11.827028 10.895062 1.661765 -4.192175 11.956 1.215616 8.215231 11.329423 -8.366615 -4.78252 9.265858 -3.293718 6.610986 11.036886 -6.707043 9.077868 5.488684 -3.5411 -9.952331 -11.220482 11.25325 10.33975 1.576773 -1.718763 -2.330837 -7.357162 4.677964 2.021778 11.608111 1.063751 -2.927484 -6.968678 6.989785 11.743076 9.542122 -9.865495 -8.657489 3.839217 4.987712 2.173971 2.078187 0.756871 -7.171088 11.093081 -9.588028 8.600266 -8.626184 11.864838 0.443059 6.943679 -0.250374 -3.847479 9.248844 -3.714796 -1.304316 6.235969 -7.069287 -1.426826 1.981342 8.135889 3.385623 9.96808 -8.577942 -5.983016 -6.836418 2.526273 4.428054 -0.150824 3.107073 -4.234858 -0.269216 -9.045414 9.554403 -5.907042 -3.606573 9.466396 -9.275096 3.859943 3.422535 9.874177 7.489832 -11.689388 8.258916 7.728643 -9.931234 1.990854 -11.863229 -3.772696 7.277246 -3.813359 -11.238984 9.800863 -11.212704 -0.255271 11.963707 -11.031311 -10.551524 -4.850886 -8.038628 -9.369907 -7.947029 -11.999534 6.546017 0.606614 5.014225 -2.930809 -6.996481 -11.351083 8.264529 -4.133774 2.764034 4.270383 6.262919 -8.80093 1.749991 -3.332122 -10.65931 -2.545946 -10.901793 -10.361368 -0.302258 1.369217 -2.606452 -11.199382 -5.801059 6.835654 8.762543 7.572222 0.705601 -1.211384 5.136274 
ut2n1 6.265469 10.013123 9.523057 3.702796 9.295476 -4.448217 -6.208192 -5.969697 -9.092731 -0.156415 8.817954 -0.446839 11.969509 2.294036 11.876446 1.073907 -2.71686 7.23364 -8.626578 7.645202 0.501387 -7.790159 1.375131 4.656712 4.155976 10.366084 6.311809 10.162788 -10.56711 -8.669389 -9.894718 -11.552218 -7.760594 -7.62648 6.242516 -7.463237 2.752602 -8.323418 -1.659231 -5.179677 1.037958 4.396242 -7.476568 -6.826875 -0.524899 3.78613 -10.55091 -3.09324 3.626205 3.981429 5.109775 2.608436 -5.16902 -11.866727 1.537811 0.377936 -3.789392 1.417396 7.334085 6.186247 8.911464 9.027109 9.454045 0.040181 9.317838 -3.403344 9.961113 -9.651751 8.611368 0.58694 8.480697 -1.656001 -6.546697 11.001533 -7.138631 2.633935 -9.285862 4.386821 1.073249 10.89813 -5.926351 -2.593906 4.647071 1.482501 -0.037265 -7.6367 5.98081 -9.917262 4.716965 -8.111865 10.614245 5.930746 1.960114 2.580089 -0.904799 11.855452 -2.865535 -9.255027 1.334726 5.300715 -7.256965 1.443422 -10.628185 -3.155946 9.267373 0.906798 -7.758184 6.970842 -11.127033 -4.038164 7.166007 -5.180486 9.912781 -1.55866 6.553342 6.324335 3.887835 -10.355848 4.328753 3.643159 8.92222 -8.256418 -4.12414 4.968565 2.95835 5.629375 7.405351 3.781716 -0.223306 8.004294 -5.166224 -6.680815 1.592686 -1.357718 7.280883 7.483962 -0.618072 -4.44888 -3.932896 11.642767 0.233243 11.368453 10.616214 -0.287239 -0.072412 0.65597 -2.058367 1.651662 4.589249 0.842467 -11.58173 -10.07379 -10.345796 -0.597523 11.315253 6.74488 3.548954 -9.556948 -8.911665 -8.198336 -10.628428 -4.792736 9.704168 -11.011309 -1.484836 9.0889 9.292133 -6.003623 9.572354 -9.411241 5.192777 0.930747 -7.992137 5.22893 5.995432 -8.961483 6.984663 -0.222673 6.430943 -7.658573 -6.622324 1.220726 -0.991069 5.442301 -2.592657 10.760463 5.06243 1.976198 9.473922 -8.309087 7.386169 -9.858998 7.671726 3.356785 -1.071773 2.452704 -5.888993 7.471216 -6.981789 10.331575 
ypt3n2a 11.573603 -8.087407 -5.611463 -7.663629 0.176905 4.703947 6.768869 5.824656 0.619153 -4.785269 8.107156 -0.471763 -7.77252 -11.289313 10.494191 0.993682 10.428596 10.213512 -1.357981 2.048795 7.410401 -3.782112 4.289985 3.416883 1.641303 0.149452 0.185633 -5.688427 -9.437609 -2.466829 -9.688888 -9.69411 4.166125 9.677554 -7.200825 0.980213 3.323568 2.266047 6.506315 3.814719 3.620686 -2.417086 9.483984 -9.497206 1.112631 10.186832 -10.387679 -1.677119 -9.196608 -8.318625 2.43421 6.417156 9.806626 6.817487 0.750968 0.786347 1.041901 0.498994 4.814362 0.520965 3.969061 -6.651858 8.973118 -0.74985 0.261812 10.324067 2.405513 10.000274 -5.529894 -1.526935 -5.906917 -11.383645 8.619317 -5.774539 -8.536098 6.610336 -0.657365 1.739796 8.157346 8.761139 -5.45843 9.63101 9.13569 0.002408 9.717854 -7.994768 8.891293 -7.905242 -9.981487 11.059711 0.771622 -0.709702 -3.315727 6.592384 4.467734 11.658123 -4.010068 -5.398515 -5.514662 -5.049582 10.913768 2.741573 -1.059055 -9.150247 -3.328539 -7.261754 3.299084 9.149075 0.898481 -5.050191 1.689988 5.876851 -0.336689 -3.899974 -6.779419 4.590759 -10.357692 9.792102 10.215063 -9.975759 0.685462 4.74991 -2.405209 -0.018817 7.650729 -8.18154 1.63063 6.834939 -6.216932 9.59153 8.074342 2.198809 2.062734 -7.879688 -1.800933 9.296084 9.845831 -1.507132 -1.447654 -4.73137 -4.231429 -6.83987 -9.751404 0.124 4.285082 -8.279885 -11.598622 -7.76806 8.357109 1.457964 9.819242 2.242122 -3.287664 -2.724658 9.362354 -5.994139 0.736518 -10.271315 6.380572 -1.454458 7.463054 -1.268274 -9.572942 -6.673649 -8.72795 -3.936364 -2.035049 6.045935 -10.190622 -1.83991 -10.941923 -0.131531 -6.715339 -2.249513 -6.939911 -0.509403 10.70557 -1.259506 3.089888 -3.362364 5.754218 -0.674986 0.604603 5.549359 2.909929 9.652641 -4.34516 7.725637 7.071047 -11.551438 -4.569636 -1.33688 1.326912 -6.16116 3.477798 7.525119 3.679573 -4.795058 0.49537 3.647749 
ypt1n0mx 6.413223 -2.766723 -11.116818 7.496345 -0.542202 -7.589483 -2.749108 0.147118 -8.508382 8.05134 -10.141837 -9.420074 -2.323631 4.531212 5.486654 -1.97101 0.816179 -11.267238 0.515761 -6.650681 9.380986 6.800216 7.997785 10.817545 3.232793 1.13232 4.301591 -6.003193 0.041901 -5.869888 1.417304 -3.743736 -11.721399 -8.448168 -11.711987 -9.753267 0.314256 5.413196 4.557871 7.094939 5.564167 8.207227 -11.100558 9.289722 -11.246992 -9.196278 5.606581 9.19456 -1.717898 -2.275582 9.412549 -10.168341 0.3262 -8.424162 3.516526 6.04381 7.68591 -10.742272 -8.424881 10.351156 8.570316 4.150952 -7.06112 10.780943 11.382796 -7.175365 5.687315 -0.340732 -0.768522 9.888285 -11.960726 -11.185222 8.284189 0.450569 -10.510913 -8.144796 11.236235 10.232348 -5.457811 -3.861436 9.057731 4.717514 4.197492 1.771785 -1.16431 8.811115 -10.652874 0.430465 4.92448 3.310182 -9.962342 -4.995605 -1.233286 8.078625 -2.939689 6.034423 -6.354924 -11.846519 1.611155 0.617183 -11.725995 -1.90424 -1.214331 5.91513 3.538628 -4.264953 -10.554482 -11.379738 1.836733 -6.957029 -9.48117 9.680884 -9.621945 -10.793409 0.068673 4.311643 0.443528 9.058675 10.487912 -5.231942 -7.994343 -3.142207 -7.04799 1.577678 1.259553 2.997089 8.784828 -6.119059 -4.487366 1.556513 -9.334134 -0.754254 -2.470575 -10.300744 -9.369125 9.780702 9.826334 -6.250942 -11.408844 -9.417074 -3.440286 9.37099 6.620349 6.517226 2.548956 6.614258 -7.469092 2.034431 5.624796 6.661516 1.285934 -7.802432 -10.108527 5.965099 6.565445 7.295525 -6.360218 1.03654 -6.670379 -1.615221 -1.453477 -6.508334 -8.505019 8.810695 6.444299 -1.9605 10.862908 7.220856 8.344004 -8.060855 -11.786644 4.79381 -4.459151 9.034755 3.000019 3.367557 -9.466858 -5.185367 6.356682 -2.13696 6.131522 1.026454 3.147906 -2.141153 -5.465225 -6.783493 4.570639 -8.615745 8.296781 -11.853157 9.33678 -3.0413 2.007597 6.3801 6.740173 -2.38332 5.160106 2.40775 -11.065086 -8.881958 
ypt1n0 -6.927882 0.533436 -3.474655 -8.245452 1.882213 -0.690995 -10.908524 -2.875456 3.536094 -5.343222 6.547087 -8.041512 1.32862 -0.10245 4.25114 0.539053 5.965159 9.739728 8.566606 -4.529577 6.254301 8.870973 2.084225 11.512384 5.442442 4.129638 9.002186 10.905699 -10.15082 -1.680768 11.176106 -2.923762 2.860876 -8.434917 -7.872839 0.816229 -5.511784 -11.30169 11.81966 11.001988 -11.408007 -7.511862 7.292761 10.618361 -3.470175 0.629555 1.254486 8.321092 -8.625087 3.229214 6.51964 -2.020738 -2.993604 -6.881549 10.696648 -10.399136 -2.730679 5.658207 4.801785 10.755535 -11.949358 5.78658 1.502702 -1.930615 -8.483863 -2.104301 -10.533411 -0.422163 2.901543 8.710503 5.811751 2.683268 -1.850336 8.677977 -5.065178 -2.824754 7.333633 1.461342 -4.990734 -5.767948 -1.79505 -8.030403 -2.775747 10.533117 -3.646632 -3.061217 -2.643551 3.57297 -2.635893 8.417269 8.540679 9.978189 -5.993656 11.593269 8.128866 -2.910171 -8.114648 2.238795 -9.699898 -2.715311 -3.860907 -2.369879 9.608105 -5.53023 -4.341486 0.140819 0.92581 -3.104826 -2.040766 -5.21065 -7.729784 -8.108357 9.230748 4.859126 -7.235889 -11.650114 -9.762302 -6.705103 -5.485322 -0.280241 9.646221 -10.084735 -1.537531 -3.981671 5.996802 -10.432943 -7.72236 5.796753 -2.05649 0.183218 -10.846208 6.226868 -6.472084 2.291841 3.873194 -6.570668 3.154464 8.85988 -11.209381 11.876053 -6.417544 -9.558985 -10.593579 5.160633 -4.351714 3.433105 2.972969 10.64145 0.579985 4.836578 -5.898036 9.422956 4.664571 11.24105 -1.386418 4.851715 -2.322862 -1.14658 6.891885 5.164618 -3.120934 -2.783414 8.784313 9.137669 -10.458854 1.853919 -4.393456 -10.455322 -9.154108 4.410512 11.087442 5.946107 6.671698 -3.051789 10.112251 -4.210715 0.159984 1.88733 1.895615 11.012119 -10.885112 2.673909 10.739459 6.303393 4.183488 -9.41267 -1.195794 8.883645 -8.586988 0.18899 -2.654782 8.131599 7.179886 11.748732 -2.360181 4.592026 4.633946 1.571623 -11.646332 7.861855 
p&a -11.300433 -3.516366 -11.631299 11.562316 -6.676135 8.820687 5.118305 -2.934204 10.060636 1.101524 -3.7512 -6.142933 7.227055 3.150708 6.949776 9.369443 3.768665 10.774097 0.569233 2.847386 -6.383436 -9.82501 -7.847052 8.248024 2.719179 -11.864868 -2.679104 10.404958 -1.92056 -11.429321 6.417007 -1.361328 -11.973412 9.409174 -1.858012 2.708846 7.600315 -0.180496 -2.097662 -6.535266 4.323352 0.66278 3.882181 -7.239233 -8.21293 2.617964 -7.63208 0.16546 -2.626907 8.772074 -2.870809 -0.297382 8.082348 -2.449321 11.683015 6.324812 10.84144 3.700352 4.041503 1.030001 2.804652 -10.379301 5.066871 -2.506862 -6.931677 -9.320496 -6.168997 -10.204502 1.862786 -5.769526 -3.599792 -1.704526 6.685493 -7.111006 -9.760744 10.895429 -1.012617 -9.792727 8.952234 -10.079785 7.922998 -0.773856 7.351185 8.533867 7.323273 -10.53322 6.866929 -4.918096 0.448382 1.761479 4.089912 -5.042349 2.226444 -9.091376 2.752367 3.551896 6.582343 -10.527118 9.736491 0.556135 -6.890659 0.137593 6.71681 -6.649361 0.73461 10.852305 2.818301 -8.580561 -11.821749 -9.395718 2.195328 -3.304664 3.903781 -8.021207 -4.290167 -5.551054 5.906538 -0.241075 -4.089298 -2.203288 -7.915124 10.651561 -8.71036 4.113797 5.087453 7.812163 3.312345 7.598665 -2.571638 5.176881 11.997179 -5.052875 -4.689701 -3.303515 4.837011 -5.445465 -5.005619 -9.59747 -0.366689 9.875797 -4.296324 -7.177883 10.335025 4.533742 -10.054047 11.593547 -9.751794 -11.522613 -4.21043 -0.778912 -8.994207 -7.047455 6.02489 8.743045 -9.539608 -10.741844 6.292028 -7.326776 -3.813668 2.222675 -5.845827 9.911834 -4.449288 2.045778 5.744179 -0.592166 10.336592 3.611587 -1.989455 -1.809397 -4.325066 -7.409445 2.73734 4.974831 -0.434708 0.608082 7.411075 2.878405 -9.461239 11.468884 7.655962 11.879023 3.040038 -11.112945 -7.642576 11.471213 -9.121008 -10.61728 1.742169 -11.428643 10.62547 -2.032895 -7.418412 1.054272 -8.905407 -1.05122 -2.666366 11.390827 -1.906817 -10.34522 
pt3n1am1 -0.563152 9.692013 -0.628593 -6.928751 1.118545 -4.949169 -6.752821 -5.630825 -3.022306 6.409283 1.64428 3.991729 10.251412 -2.736294 4.308595 8.440669 7.072448 -3.642379 5.740329 -6.889815 9.173465 1.097191 7.903454 -2.522479 -10.607628 11.760353 6.047122 11.670635 -11.018611 4.656584 7.9972 -3.105907 5.120971 5.230242 3.049501 -5.594656 -6.811852 5.686325 -8.880241 -5.305558 3.227278 4.053446 2.078811 2.231247 7.719656 2.684765 -6.775126 7.605029 10.146841 2.033533 -6.381714 8.092391 -1.008973 -3.874131 -4.472533 -0.349688 -2.285816 7.489308 -4.491672 6.042103 1.906177 3.381603 -3.337216 -5.735057 6.190473 2.0E-4 3.395448 5.658665 -2.375499 10.938752 -9.488937 -6.963651 1.23016 10.49295 -10.231398 7.888237 -1.061591 9.503924 -6.96852 -7.828569 5.630328 -6.736636 1.926682 -7.59124 -0.894569 -0.409513 3.449121 9.781128 -3.293488 4.526877 7.220912 0.608629 -2.021321 5.181193 7.138737 -4.923389 2.138728 8.091665 3.91589 -3.726158 -10.720612 -4.939777 -10.450983 0.570842 -6.868533 2.748075 10.01304 8.077406 -9.144697 1.408437 8.511148 -3.620742 -4.268586 -4.031884 4.380211 7.964734 -10.231348 11.255533 -5.724605 7.71332 7.146611 2.508742 -3.46882 -6.471208 -7.942538 4.382912 8.619462 -9.339308 5.910859 -11.487283 -0.601195 4.468739 -10.986039 -10.729038 -3.627617 -4.654215 -9.262932 -0.299233 -2.554413 1.225811 -6.176177 -9.315473 -11.302318 -4.435579 -11.096673 -1.751191 8.455375 -4.109788 -3.589996 -3.50968 -4.520435 -6.013627 5.015442 -5.056031 7.349984 -8.527263 2.324913 -2.699992 6.155898 10.019524 6.989683 -10.786819 -9.625547 11.634896 -8.465324 -5.467267 -3.658307 -4.570605 4.0995 3.618073 7.994718 4.971293 -1.060757 2.490823 11.586889 -7.192204 -10.070047 1.409928 0.851425 -10.062013 -3.527926 4.042429 -2.387846 -6.015652 9.083607 9.738445 -0.886341 -3.479392 6.623179 -6.49515 -11.633542 -6.52537 -11.518361 9.10806 3.576311 -9.264032 -4.770761 6.32229 -2.749812 -5.941316 
pandiverticulosis -11.896087 -4.324424 0.84486 -1.939086 9.374567 -6.868203 -5.152476 -8.41634 -3.988228 4.982856 -5.048704 -0.117818 0.246663 1.811142 2.511856 -3.915682 6.497289 11.718313 -8.255042 -0.939004 0.790105 9.102372 1.147967 8.315151 -1.797268 10.100974 -1.597991 8.706159 -9.997469 -2.595195 8.534754 -3.212106 11.054008 9.480839 10.397328 -11.750602 5.716465 -9.668797 -11.467782 -1.591867 -1.148201 -2.250691 -11.717452 -3.083307 -6.289277 6.620882 5.516484 -8.195199 4.364186 3.153411 0.613991 0.689367 -9.004831 -5.996493 11.3866 -9.553709 9.76447 7.107597 -4.625733 -1.151338 -0.887444 2.607311 2.486864 -7.363067 -2.742033 -5.403163 -11.768736 -9.802436 -10.698791 -0.494488 -6.211578 7.487606 -7.258483 2.764778 -2.021701 1.053618 7.362291 3.994651 7.673902 -2.045794 -8.660545 10.280711 1.499166 -4.893496 -7.924578 5.198624 -7.331181 -3.962255 5.659798 -3.920903 -5.398163 -4.765904 7.006373 -6.407863 1.463509 3.239818 3.614401 -1.934603 11.064571 9.370767 7.550612 -11.962648 3.569343 -8.632808 -11.353181 8.381966 6.238166 6.521703 -0.943567 -6.072535 9.952965 -11.220736 1.211641 3.827756 -2.451882 3.016944 7.871425 2.03097 -7.007692 3.172144 -5.65096 8.025569 -3.759563 -10.901061 -10.843966 -0.369654 3.098139 -6.006897 -1.801721 -8.069367 -9.285144 7.937337 -6.692033 -4.451055 1.344879 -6.420851 10.293942 1.274222 7.789201 9.164775 6.841173 -5.340206 -10.545546 2.113467 -9.511378 -6.463908 -3.761344 -6.972585 -6.436816 7.470101 -7.523084 7.49349 9.345832 1.039476 2.953687 7.243975 -4.105475 -5.624826 7.511602 7.204328 4.846869 -5.237611 -9.939639 -3.33299 -5.82602 10.175542 -10.187438 11.291329 0.255407 5.458981 -8.653171 -8.15982 -4.20656 4.450996 1.622015 11.525508 9.983542 8.684713 -7.660306 0.545273 -7.993908 11.385323 7.075589 3.855593 -5.696937 -1.680914 4.37405 4.432724 2.251697 4.635463 2.523079 -10.759553 -10.254325 7.179668 -6.999092 -11.170629 -0.157288 -5.161135 1.608489 3.955611 
regurg -3.964045 7.321202 -0.924215 11.81722 -1.145004 -6.647239 0.4531 -3.532287 -1.599251 -11.386502 4.872192 -11.323059 -11.933138 -0.180869 6.285313 -2.029493 6.09881 -7.808093 -8.436232 1.789879 3.790211 9.149106 2.861022 7.67627 -5.985624 1.374079 -7.581173 8.09229 -8.562485 -8.479458 -3.981735 3.956336 0.158485 6.636804 0.051053 6.175592 -0.331618 -3.01746 0.709896 -5.575514 -10.078264 -8.753357 0.07009 3.126347 8.959468 -9.739355 4.858044 0.056972 -8.077722 -1.861872 1.4758 -8.80025 -1.55853 11.356475 -0.625908 -5.557099 8.29276 -11.366734 -11.860095 6.42036 -3.153032 -8.46446 1.687936 -6.741251 0.249991 1.596104 9.7188 11.203826 -10.58715 0.296989 6.13027 -8.93926 -8.208929 -0.3839 -11.658749 -2.906644 -9.418919 0.919045 -7.488347 0.488848 4.359736 -5.185945 -0.585243 -10.295304 -1.65844 -1.826131 10.242095 -1.023827 -2.673335 -3.135647 -9.105687 3.973333 8.060818 3.805614 1.334929 2.057435 -4.872499 3.827257 -0.642683 3.797719 5.640301 -4.634595 -8.361296 8.370337 11.902346 -1.614979 7.228391 -1.827783 9.848005 1.997012 -10.359141 -0.556448 -9.519544 -9.924451 7.497846 3.903561 -0.332816 0.766941 -5.813077 -8.634912 2.553915 6.117374 8.27755 -4.995441 0.505911 9.132731 -9.541008 -2.575245 2.884014 11.419688 3.537957 -11.141224 9.111226 -2.856837 11.557233 6.824525 -3.615899 8.371186 -9.629975 -6.75001 -4.968383 -7.035836 -10.97183 -5.449501 -5.077355 -2.99854 -0.884203 0.350121 6.471601 -6.675854 9.683488 7.50025 10.690256 10.108717 -11.288622 3.759421 6.382139 -7.527481 -5.946876 -6.040716 2.974434 11.947535 -6.413932 -3.307354 6.630639 -6.75485 1.81638 9.520379 -10.814225 7.070447 2.461398 11.404992 -5.905696 -10.169505 -0.445185 -1.460463 8.979391 -8.082928 -8.606188 1.951509 -11.479433 -10.169833 -3.82934 -11.77769 -3.684703 11.744557 11.404759 2.373777 1.998369 5.207696 -6.685479 2.434252 4.301512 -8.506918 -2.958065 -9.592439 11.884018 -4.280789 -3.833902 -7.670767 
+1 9.66363 -0.819836 0.215423 -3.19477 -6.974601 -5.580191 -0.088314 -9.110618 -6.315406 -1.582468 -0.347507 -1.633337 -10.871732 2.839364 -6.737794 8.470397 -5.541555 0.644299 2.314795 2.772394 -6.891615 -6.578486 2.355507 8.445975 -0.698215 -2.329799 7.121715 -4.68723 -11.726759 2.819576 -11.613298 -3.95488 8.166702 -2.877359 7.323624 -0.393159 4.17712 -6.356839 -5.689723 -4.523938 4.898906 9.391292 -2.131214 6.404754 -1.006744 8.249204 5.957728 8.430557 11.184843 8.664005 8.107663 10.567386 10.246823 -7.82881 6.914476 5.062298 -3.968494 -7.352215 -5.821625 -5.683019 -10.247477 -9.219692 -7.500187 4.533209 -4.377274 7.568566 7.417067 -11.147473 -7.399492 -11.227705 2.193616 -3.778651 -11.60433 11.043548 5.136916 -7.576366 4.034393 -11.9263 -4.146404 10.684192 -11.818692 3.419846 -3.880447 8.956653 -9.934889 -10.23865 5.066827 7.471031 8.252587 0.173191 -4.837368 -2.673206 -4.335645 7.588733 -11.020711 -3.121754 11.124083 -0.039554 11.0273 7.369992 0.381362 6.713076 5.947205 2.741199 -11.053147 -11.080325 10.129322 -7.271736 -8.773216 3.21685 -1.646107 7.356499 -10.657733 3.811527 -3.682393 -3.377684 -1.332595 -9.982538 5.935901 1.628385 3.518538 -5.40433 -6.916115 -3.354856 -8.42456 8.758878 -3.037832 5.532984 -0.486268 1.036045 8.547293 -3.329615 -11.023823 -2.721066 0.609961 1.994188 5.408989 11.928663 -2.442399 -0.030842 8.437715 8.246073 5.881345 -2.735099 9.355696 9.54573 9.260855 7.629156 4.946527 8.559276 10.403921 -5.092589 1.260398 11.889812 -5.528841 0.369732 8.112631 11.104914 8.4596 -11.533371 6.971152 3.351822 1.192371 11.84673 -0.451913 0.464298 1.585147 11.929951 -4.190891 10.366558 4.633439 -0.459183 -9.73741 8.165648 1.088262 5.067492 4.289058 8.659552 -7.938847 -6.676947 -4.080099 3.074259 -2.177072 0.746437 8.87268 2.678979 -7.165962 -0.208533 -2.20113 -11.485412 0.567789 -4.686729 -1.401727 -0.193629 -10.038846 10.472369 7.302793 7.718034 10.351315 -2.862381 
+3 8.43069 -8.060103 -8.470449 11.980166 -2.139129 5.190151 -3.932522 10.411469 0.175239 -8.95606 -5.65588 -1.770579 2.065494 1.591036 -9.274283 5.297507 11.799303 3.258742 10.123602 -9.207097 5.889121 -10.277339 1.678931 3.520325 -5.99458 0.163855 -5.403505 7.499398 -2.175491 -2.783116 10.17324 6.494257 6.899579 -0.210851 5.840619 -2.635003 8.792015 -0.482111 5.563281 3.081574 -8.401515 -8.032868 -11.789924 5.951645 8.657749 -3.247177 5.536779 -11.925187 -6.380467 0.620323 0.193368 1.246676 11.206316 -1.91565 -4.307853 0.496967 -7.102753 5.577442 6.546417 -3.842897 1.411894 -0.861101 -8.18714 4.813298 -10.730057 4.512146 -6.95577 5.712399 0.851406 -3.895655 2.18236 -3.851472 -9.719657 -2.401911 -7.80502 7.069522 -6.896474 -9.909129 9.283233 -3.396857 10.133916 -4.525971 -1.739772 4.413939 -11.022719 -10.651239 0.224423 -0.237427 2.658675 -10.887253 -4.074953 -5.1496 -10.586008 -1.063115 9.240212 -1.507013 -6.889804 -5.812473 -3.03819 -2.622799 -6.0937 -6.564391 -2.395266 -2.882531 7.665594 0.529939 9.231367 1.037695 -7.721962 -5.702106 2.305767 11.066307 5.450222 -0.727311 -11.63462 6.342804 3.668684 -4.567674 6.821548 -8.904847 -0.059168 2.27127 -3.526438 4.05827 -7.43383 -9.38817 1.344369 -0.835188 10.588944 -1.601828 6.219568 5.450406 1.731761 2.301816 9.794697 9.076391 -4.491808 -10.69659 -5.390716 4.084094 7.860788 -6.498483 10.969576 6.95558 -5.930622 -10.764906 -7.164728 -4.733223 -4.177033 6.192246 -0.830948 -7.320206 -5.753016 -0.486174 4.521117 -6.767803 9.326053 11.986349 3.64438 -6.658054 5.560919 -1.745358 -1.290574 -7.842369 -10.153407 -1.429411 -11.788252 -10.155419 8.457206 -8.069733 -2.062769 -8.891631 -10.32849 5.537705 -9.624705 -0.281859 8.971403 -10.630568 -0.257462 -6.996805 6.894284 -2.800079 1.303142 -10.742907 1.518482 4.783992 3.945787 -10.305391 -7.790536 -6.021878 6.000204 -9.932318 8.652917 10.418613 -7.950038 -0.742457 7.349284 1.960468 9.021534 9.121057 
pt2n0mx -11.357251 5.416756 -0.896906 11.58033 -6.993899 6.224208 -2.930057 -0.594491 7.701355 -10.503273 -7.633067 -7.648335 2.084438 11.514396 11.821638 -3.728404 -0.27931 -3.968462 -2.864493 5.537309 8.126361 -0.126678 8.323651 2.563873 2.349735 9.126316 4.047344 -7.559703 -11.246061 -7.185643 -3.693212 3.633001 -11.738078 3.287031 -9.764912 -0.561613 5.972561 3.633989 7.757855 -4.678022 0.455258 -9.725723 8.656274 -3.5075 11.178823 7.455789 -7.905086 10.020236 10.428929 11.735867 -6.050996 -5.480081 -3.283229 -9.399933 10.289317 11.879365 4.080112 -1.788025 -4.84373 -0.274024 -6.173778 2.872953 1.278259 -5.715795 -9.83525 -2.893398 -8.337312 -3.012018 -1.173067 -1.631329 8.011622 -5.326943 -7.833956 6.219092 -9.312625 -7.614842 11.382357 0.378736 4.476837 11.800768 -5.585588 -0.570549 6.676737 6.968315 -9.313264 4.001843 7.045522 8.53844 11.30266 -6.868759 8.940906 -8.136978 -2.580711 -3.951812 7.485658 -2.696499 -1.559882 8.005766 1.877573 0.80003 3.309238 -2.16803 -9.016972 -4.786091 2.589493 2.731325 0.126985 2.166678 8.155418 -5.554174 -3.484305 2.060212 -6.769818 6.221272 3.001838 -9.32694 6.144239 4.110954 -9.07475 -7.810751 0.591808 8.984635 6.535819 8.726681 -2.690272 -4.803333 6.028593 -10.606797 -8.998288 -3.796954 1.494558 5.609358 5.97941 -11.496868 10.113989 11.897783 -3.609834 7.117719 7.692727 -3.449881 2.049787 -7.598963 -0.834854 -7.456716 -11.202951 -8.679746 8.961042 5.787851 10.935153 0.421949 7.157081 1.252253 4.723735 6.540981 -4.893081 3.717435 8.033495 -1.106897 4.767505 -1.122461 -1.826049 -11.471371 11.212536 6.213138 -8.446761 10.210373 -2.152513 -10.47554 11.227346 9.615041 0.614032 6.222998 9.544582 11.343177 -5.004851 4.440837 8.989528 4.558706 1.90563 -10.272053 -5.020831 5.165067 -0.423865 4.568656 3.76231 -11.739156 -5.687603 6.15944 -11.278146 0.203755 -4.465396 10.851097 -4.722072 -4.052196 11.775411 5.369329 -7.761695 -3.595688 -1.661489 9.388682 
pt3n2bmx 3.840972 -9.586484 0.093081 -0.754277 -6.117805 8.499317 8.402904 0.5383 -0.778224 10.915756 1.462367 8.068613 -1.394262 -3.420328 -1.664996 -8.95115 -9.854972 4.31997 8.763658 1.69897 -7.062689 11.459867 -0.655188 -1.672746 -6.782649 9.084398 -10.066959 3.695109 -0.930084 4.431416 -1.835007 -2.071407 -9.862419 0.680267 -11.23426 4.450038 -6.095768 4.998232 9.823786 -8.63589 -11.96647 9.040791 -1.505564 7.443555 2.890011 8.187688 1.614693 -6.679157 -8.231049 -3.367279 6.48626 10.702845 -11.490444 -0.968895 -2.393305 7.38662 -8.93553 -0.255786 -9.59783 -4.43468 -0.752954 -4.192571 3.038745 -6.625822 -0.72376 9.582756 -11.837503 0.837451 -5.112551 -0.356161 -6.057713 3.338156 -5.323955 11.776891 10.062378 6.443356 -6.01123 8.067041 7.335557 -2.621295 5.076638 8.875514 -0.619144 4.656876 -4.628605 -7.901007 -10.666596 8.325471 6.646028 0.438471 5.827369 -4.989101 -4.531727 6.490815 0.516398 10.3957 9.754488 -2.687786 -1.8306 4.977682 -2.620311 8.688629 -8.097048 4.920212 -9.30197 8.684268 -3.614972 4.513917 9.47637 0.125093 2.868237 2.230999 6.142091 -5.489742 9.684127 -3.435703 -10.605308 5.430353 6.353612 -7.195812 -6.870815 -2.092763 -7.258028 -4.382682 7.267715 11.156194 0.710337 6.752134 11.494272 6.107086 -9.511003 -3.592908 -3.964179 -8.392888 -6.478687 6.758377 11.531586 6.563708 -0.199547 -7.145107 -1.319322 11.372081 8.744598 -10.450776 -8.243313 -9.19221 -5.570282 -6.655793 4.226305 -7.84926 -9.477553 4.995696 1.607468 0.64287 -10.470986 8.423023 6.350968 9.46778 10.999642 -0.060391 1.927885 5.276464 4.101269 -6.972875 -11.546324 -1.13075 -4.505166 -0.16249 10.078146 3.980001 1.72689 -4.681873 1.019005 -10.805446 8.368667 -4.683753 2.515118 10.871316 -8.090818 2.230004 -0.875978 -5.482119 -11.067562 10.7339 -10.313301 -7.586547 0.382167 9.817868 1.931044 -1.647183 -7.258976 -2.160157 -11.916098 2.223525 6.72457 -11.497255 -9.990016 -10.286106 7.613839 -4.372329 
pt3n1bmx 4.294407 -4.214617 1.623684 -4.693905 -5.665953 -7.371189 3.727571 -4.525254 7.901327 -10.340155 10.13291 -4.832175 -3.207498 -11.304888 -4.875555 -11.337878 -3.929063 11.786234 5.266684 -8.558445 -11.935692 -1.72498 -8.020241 7.368582 -5.326881 -8.531031 2.276566 -8.33913 6.696316 -8.077777 -7.027541 0.232554 -9.221726 7.642972 5.952224 -11.329665 -10.770177 5.63434 5.102475 -10.424356 -10.625553 0.01163 -6.708926 -0.785017 11.21921 -0.475184 -11.701401 3.381539 9.148414 -2.348937 -0.119675 -7.917929 -7.013583 -10.491995 -11.839368 1.124034 6.174489 5.67446 0.335168 -0.111183 -10.044985 3.591183 6.179561 -5.462071 8.354792 -7.449791 -0.863121 -5.390108 9.407612 -3.632749 2.779515 -5.573453 5.454737 -5.3324 10.214562 0.938403 5.510353 5.30186 2.52524 -3.400378 9.577474 0.743828 -6.385696 -8.425874 -9.551746 -1.591263 -11.161132 10.035311 10.921061 4.666055 -8.400524 2.53273 -10.484863 -3.093077 1.569693 -7.639924 -8.337912 -2.637712 -7.474057 0.56975 6.001887 6.453716 -7.239259 -4.259819 -1.19048 10.294803 -7.164083 0.813062 -0.27318 -7.452967 9.955857 -7.721429 -5.12749 -6.830109 -10.485776 2.69759 9.051871 -2.309042 10.391076 6.010866 3.185918 10.457651 1.35071 -9.703976 0.22839 -0.08177 7.414016 8.594225 -9.262697 -0.684398 7.352562 9.139273 -6.08374 6.263411 8.475053 1.782832 -6.660879 -6.490157 8.650273 1.620422 -7.27988 -7.219519 2.034019 -4.216245 9.989899 -4.072468 -5.758987 1.075929 7.586421 4.698631 -7.273819 6.586928 -8.731887 8.274416 4.913151 -5.362178 6.905067 -7.690028 -5.868756 9.362993 -11.397464 -11.448827 -8.304321 -5.04936 2.159411 -3.817056 -9.510863 7.022781 9.262806 -7.097687 11.176291 2.846874 9.968319 5.29515 4.706318 -4.967853 -8.086055 -3.56862 10.031862 5.074645 -3.635903 -6.320627 7.996363 -6.424063 11.578605 -2.42377 -6.884923 -10.82861 11.149991 -0.823472 -11.501419 -11.835181 -11.149221 8.638098 7.440969 11.577285 6.181031 -6.110698 -1.781597 9.778743 
dec. 8.204715 -2.941764 4.417102 1.082169 -10.588025 -2.069781 3.633304 -8.359237 4.242808 -7.964147 8.661164 -6.300288 -3.443927 6.057897 -4.692003 5.71499 4.726201 1.08112 -4.250296 -10.937424 -7.80156 -1.204765 1.862658 0.022405 -10.768151 11.096977 -8.758224 -7.567668 10.20776 3.623281 -4.362077 11.868303 -11.720197 -5.416496 -2.678761 -3.582137 9.290078 9.844536 -4.599575 -9.9249 -2.225547 -8.441405 7.40145 -1.503986 5.528436 2.709445 5.432588 -2.685727 9.60349 7.788698 -8.963883 -11.571752 -6.2479 4.399817 -11.649529 9.631152 9.238336 3.923356 1.480053 -10.332965 -8.420881 -8.537072 2.99337 0.256354 -10.820222 -7.872689 -11.756423 4.845744 -6.024013 -3.709939 -3.27104 -7.202428 9.092574 -1.196084 6.984327 9.445783 -7.821872 10.233228 -4.482291 -9.094504 3.472782 -5.996398 -10.919785 -0.26527 0.814988 7.953827 1.08032 9.507596 3.691532 -9.888834 -8.772705 11.069211 -4.916546 10.596978 -9.488049 6.703536 7.259035 -9.594405 3.40627 4.65628 1.813368 -8.6147 11.686961 1.415948 5.152546 2.086223 7.561414 6.867035 -5.731118 9.225863 -10.202063 -4.109664 -11.947957 -1.641071 1.335643 3.19624 -9.470598 1.924083 -5.627257 0.13785 -1.672631 8.176155 -4.794519 6.961686 -6.706132 -3.401709 -5.886651 5.414673 -11.379403 -9.775528 -2.640312 8.837051 -9.04787 -11.111257 4.90019 -0.16821 -2.132651 -6.246534 6.665284 -0.687991 5.767158 -3.445188 6.305796 5.188873 9.600836 10.839673 -7.93527 -1.826671 -10.988151 7.054107 -8.038543 0.126034 -8.617635 10.67933 10.748009 7.100721 -7.095837 0.697287 -2.879341 8.687207 -3.797947 4.503675 -0.556644 -0.528813 -0.815637 -3.027698 0.763051 -8.611109 -3.306486 -4.28943 3.170395 -4.534396 -9.821917 5.631814 -10.417314 -2.111976 -6.993742 11.806167 3.799431 -11.428684 -9.811014 10.137558 -2.795707 -9.657278 5.179549 -11.249606 4.760635 -0.425539 3.064775 -2.944612 9.971326 0.559641 -1.138511 4.299993 2.24689 -11.864194 -6.219721 2.994747 -3.350464 -5.97829 
pt2n1mx -8.78294 -5.057127 7.254034 6.043816 -4.118615 -11.313669 -10.610172 -4.110016 -10.131126 -6.982488 0.802258 -1.761273 0.63356 3.791679 5.294135 8.07337 -0.285591 6.61118 -1.317591 7.701364 9.718711 8.038453 11.92808 -3.540027 2.463436 -9.169295 0.070936 10.300452 -8.675858 -7.724854 2.124158 -6.596187 11.739424 5.039565 8.357249 3.692175 -10.532664 -6.961022 9.419199 6.560664 0.58866 8.655027 6.527224 -3.634266 -5.599659 8.230722 -2.530143 7.166761 8.240824 2.099094 -8.553387 4.928643 3.93749 -4.509787 -5.210124 -11.145866 -5.035203 1.49702 9.388105 5.725532 -8.449787 -3.1337 -11.847116 -1.903692 3.863411 -10.282875 -2.85421 8.884187 7.072684 7.374966 6.004467 -4.621875 -5.549067 -7.65433 7.080774 -3.117412 -6.137938 3.039395 -10.77274 -11.816562 -9.142997 1.190547 8.441699 3.730702 -7.742925 -1.994284 -11.397168 -5.105573 -6.499209 1.907514 -0.696087 -7.139247 -10.821318 6.328182 10.314084 4.696283 -2.92088 8.342757 -6.528955 -10.180238 -0.283407 6.017534 -11.168069 8.58102 7.712298 -11.814506 4.682728 -4.141938 -11.454642 8.946296 -11.46999 -9.455856 6.091421 2.524397 -11.527775 6.507572 -10.986186 10.204755 -2.628836 -9.932039 1.47089 -0.098431 -3.982282 9.243561 -8.248389 4.501375 2.009456 -7.014755 -8.650113 7.457832 8.330979 8.323664 -3.363418 -0.798607 7.651461 -10.182974 7.686577 3.763069 5.127215 10.897884 3.9667 7.597353 8.020576 -5.321744 4.48876 11.925384 -11.280203 10.483352 -9.31962 -11.994685 -11.231875 -8.154906 -4.375248 -2.427194 1.283656 9.897577 -4.531134 -11.719493 5.674973 -0.922447 -6.301777 2.301317 11.83107 11.743936 10.624458 -6.653843 0.987428 10.791288 2.830751 -10.817072 11.243614 6.543176 8.468334 11.329254 11.231168 -1.82777 -11.804158 10.927567 11.703999 -5.395354 4.201702 3.897001 9.846944 5.327864 -8.851835 -2.707472 -11.128421 11.731034 -8.975943 -7.612308 1.991815 2.568863 -11.208252 0.333224 3.145246 -9.149652 -2.63774 5.329785 10.84965 3.91485 
date/time -9.169102 -9.910999 -1.642513 -6.331106 -5.945781 -5.057105 8.794671 1.918027 8.547572 3.297765 6.243338 8.438995 9.330909 0.214483 -3.24824 -1.101568 -7.251021 -10.266847 3.027996 3.935217 -0.559523 0.145964 9.097308 11.684558 11.529132 2.758036 -9.523176 -0.267172 -11.241812 10.762016 -4.555676 4.953098 8.688125 -5.311944 -8.24848 -9.11774 -8.774037 1.476811 -7.344414 2.261563 1.652869 -4.441012 -5.583824 3.073323 -1.034739 4.41093 -1.571437 5.867518 -0.256953 -4.108344 -1.062996 8.382899 -6.092965 4.252716 -4.204137 10.42819 9.626031 -11.951846 1.019447 -10.3001 -7.717451 -5.742191 7.884965 -6.325806 -3.195486 2.773132 6.126458 -8.078794 -6.181234 -10.019387 -3.719032 -10.848864 -10.019391 7.513884 -11.478329 4.012367 1.482093 -9.668551 -1.663873 -7.877164 -6.859839 -4.886999 1.181231 2.026778 -4.3858 1.55314 -7.230088 7.729916 0.201023 -2.532673 0.918021 9.177125 -7.696311 5.710778 -3.096656 4.497514 5.069051 4.746978 -8.937954 11.052808 9.837348 1.28843 -7.12864 -1.714129 1.945559 -7.231834 10.040713 2.077119 -10.925251 9.486522 6.156953 -6.222466 0.729988 3.113583 4.202772 -10.702085 7.589933 -6.186341 -6.209156 -3.405064 -7.63845 10.594096 -10.770345 1.605536 5.423933 6.56663 -2.439575 3.142087 -3.056428 -9.354505 -1.522038 -9.52828 -1.708107 -6.207658 -8.428267 1.264152 -2.505683 5.254058 -5.40314 -5.696738 8.088518 -7.674559 11.508204 -3.181368 0.168013 -11.995336 -1.235875 8.504171 2.535625 -5.504629 6.929947 -8.748071 11.78985 -5.154776 1.884593 -6.659924 -2.184477 10.096605 -8.042698 9.275033 -4.451309 -10.838834 -3.905241 1.69862 4.033987 -2.784181 -4.317576 -6.267937 -8.308753 11.753727 -9.082721 6.839608 3.356577 11.50975 -8.34736 -9.244545 -3.938532 8.31581 4.409129 0.228648 -11.33796 -6.47252 -8.23066 -1.698505 11.328898 8.999142 1.647157 -0.451965 0.556551 11.670909 -8.053862 9.159996 -4.250254 -7.333503 -1.105202 -3.021359 10.592552 8.387162 -9.129929 -6.468173 
pt3n1bm1 -7.69558 -1.577277 5.793682 3.846535 8.535922 -0.81332 -2.790439 4.268078 7.055278 -2.981672 11.923904 -6.271882 9.525244 0.080738 -5.387085 -6.135415 3.568343 0.719381 -9.923317 8.107488 -9.033097 -2.967845 7.841103 -5.694414 2.242731 8.237459 -9.416811 -1.320192 -8.990214 -10.987066 11.378554 -3.149764 -8.608453 11.313418 -0.956737 -5.605575 6.44331 -1.737415 3.865738 2.855756 10.917993 7.548708 3.797784 11.331472 5.862548 -4.659119 1.697273 2.730946 7.430445 -5.92199 5.488456 -6.494268 -4.05581 4.568801 -0.870694 6.113816 1.640237 -5.323083 -4.951271 6.691482 -11.322902 -10.548597 -3.760073 -11.632903 10.88592 10.898439 4.469632 1.362099 11.391194 11.676384 10.086356 8.485369 -8.372272 9.832054 4.684259 2.838148 -4.571553 11.282067 -9.597341 -8.492447 0.756011 -4.920926 6.914651 8.737724 9.299694 1.588584 -0.81826 -5.471462 -11.442614 -2.461927 9.824834 7.82279 -11.828951 -9.514024 11.485363 5.403666 10.182348 -3.405892 -7.176237 -11.66474 -10.476338 1.672993 -3.17405 9.23985 -7.541902 4.305523 -6.138089 1.916572 -5.169448 -0.559687 10.463905 7.767049 -1.109663 -0.817965 4.065268 -4.795481 11.094294 6.59196 5.964215 -5.316121 -2.302227 2.147902 -6.449517 -8.798932 8.089288 -8.901362 -1.643914 -7.928916 -8.276905 -6.716117 4.764918 8.504924 1.152376 -8.923234 -10.76066 -5.033368 7.064159 -2.058233 -8.304651 0.502597 -4.634468 -6.313068 7.181361 -10.803815 -4.730861 4.825201 1.289071 6.611707 -7.025587 1.545541 -1.251702 -2.447315 -2.060602 8.63059 3.431152 -6.329706 7.886488 6.243391 7.514308 -4.581184 -7.416182 -4.158212 1.821596 -0.434136 -10.907497 2.564934 4.392572 -1.073921 -3.431657 10.272366 8.096151 -2.802061 -7.144952 -8.998028 10.631838 10.74425 4.004498 8.949174 -4.465474 6.867851 -10.492046 -5.844466 8.822247 -5.405049 8.42061 -7.069029 2.699753 7.18953 -7.289716 -1.380312 7.254171 7.583089 10.059502 -8.344143 11.352462 -7.384959 4.998662 3.941039 4.973851 1.439928 
1.2 8.646396 -10.588732 -3.016204 3.668613 -0.518305 6.247652 -5.120457 9.771519 -11.52921 8.520279 4.310734 9.982921 -4.479768 -9.858826 4.20195 4.406262 4.626037 -6.162035 10.077571 -11.768644 4.237211 8.445873 9.712681 5.935329 5.2504 -10.848433 -10.492708 -8.949954 9.700853 3.408369 3.004486 7.539721 -9.386683 -1.921776 8.746606 9.043374 -10.375064 -11.058199 7.187015 -2.802322 11.89063 8.054007 3.648375 9.966738 9.429918 -4.491832 -3.658132 9.366229 -1.527469 -9.991984 -8.764802 -6.819692 -2.491355 1.232618 11.080648 -0.7694 8.647973 4.315281 2.187904 -0.532464 -8.459601 6.843406 1.549818 10.61525 -7.490707 -2.377771 -11.297315 -1.68785 -4.302962 10.031292 -8.773933 10.650274 9.920804 9.138449 -7.939358 -11.272595 10.584972 0.822126 8.845961 -5.71307 4.395099 -1.011474 -3.746521 7.731319 11.766733 9.556361 9.813618 7.756037 -8.279181 5.217679 4.009097 10.561674 -5.294116 5.069252 -9.569834 10.062987 -7.814363 -1.955046 -10.439152 0.724487 -6.020984 -1.334514 0.288718 1.613144 1.238212 5.957734 -11.495822 1.969749 -9.401416 -4.517996 4.178637 -8.938655 11.432846 -9.758702 -8.91556 -1.711848 11.290337 -7.167258 6.84282 1.479288 8.500619 6.537199 7.259594 -1.977441 9.569087 -8.870928 -4.068241 10.934527 -9.609272 -1.975809 5.881568 0.187974 -11.543437 -11.030337 8.498135 -7.425144 -7.874201 10.815469 -11.659985 7.093757 -9.314892 11.993536 8.375683 9.311792 9.314909 -3.834031 7.012233 -6.638161 -3.769031 -8.909959 11.786093 -11.803051 7.168072 2.083476 -7.137028 11.434673 -10.979076 7.559532 -7.482324 5.585023 -8.144054 2.937283 6.537908 -4.333306 4.655993 -11.181536 -7.980433 0.177144 7.0585 -10.341826 -2.705489 9.093014 0.996002 8.242677 1.755204 -2.961634 -3.453606 -10.876549 8.114067 2.969119 -0.551272 -3.257383 7.158831 11.683005 7.638829 -0.679226 -4.661398 -10.824686 -9.192622 7.664235 -11.461218 9.321621 -7.61839 0.884568 -2.823539 -4.420346 -6.519825 -1.390677 -7.728713 -11.636649 
1.8 5.28917 -4.401279 -0.579713 -3.546863 9.955767 -4.230963 7.628561 -0.732622 -5.505683 4.459364 4.721152 -7.969124 -6.651763 0.364343 -9.415081 11.837264 -2.850564 11.891431 1.76259 9.31303 -10.134553 10.787156 -2.055331 6.051905 -4.077086 -7.28719 -7.321713 -5.800776 5.044472 -11.964087 -6.864476 -4.473142 -4.565473 -3.560229 3.057166 3.050219 11.597878 6.039321 -4.988693 10.699789 -4.526462 5.527478 4.879631 3.770576 -5.285415 -5.537953 -0.992333 2.833792 -0.156733 10.139291 0.72871 -5.493936 8.659074 -0.413912 -6.005413 -4.067674 -10.324129 4.038643 -4.380153 2.049573 8.51268 -1.138424 -3.830595 3.65953 -11.938912 -3.802791 -3.206893 8.04926 -5.099272 -9.279237 3.334126 2.359654 -11.167297 -5.286852 -4.188479 1.112701 7.549258 7.248946 -5.099249 -6.730641 8.356466 -2.366858 -10.690658 -1.099214 -10.484914 -8.693931 -11.031612 1.016646 -2.836759 7.272004 4.733947 10.30511 5.932962 -10.307238 5.81589 5.500148 2.271106 -5.376413 7.425148 9.80261 11.123565 -8.045434 9.153772 2.242549 -6.959827 10.456753 3.37565 2.081195 -4.093919 -1.581916 -1.520851 8.311869 -6.596122 -2.309845 10.016414 -2.969866 8.959132 -4.947176 -0.12254 4.904371 -6.679525 -6.360428 5.37067 9.188919 8.073789 -1.24753 -3.385289 5.68285 6.288504 0.731556 -4.079662 9.748401 7.142424 6.62934 -9.135997 -10.03598 -2.230028 10.277133 -10.471409 5.197893 6.727153 0.915773 9.910081 -2.151201 -8.635007 -2.100677 1.762333 -9.287955 -5.948379 -0.933794 -3.824334 -5.610808 -6.41835 3.208206 -10.041683 -11.628803 -7.740126 0.653683 6.413307 3.885562 8.044822 4.317305 -0.623322 2.30899 0.786071 0.654537 -0.593481 -10.591988 7.987717 -0.204976 -4.214395 -7.119038 10.678789 4.715025 9.523942 -9.364361 5.869879 -3.355106 -7.179073 1.947903 -3.276339 11.993629 -2.52972 7.107419 4.96541 -7.091618 8.464342 -8.632308 10.208114 9.172803 -4.422235 7.978446 7.765145 1.484005 -9.015942 -5.210607 -1.828062 1.233891 -5.018097 -0.62469 
2.2 -1.963442 -0.2435 4.681576 -11.15666 -11.012551 -9.411007 -11.974756 -9.55567 11.385125 7.629813 11.788382 -0.179034 -5.887011 -9.836495 9.232926 -6.813578 7.160896 -1.442371 8.856291 7.938137 -10.136479 -5.976907 0.203755 5.172329 4.554043 2.165233 9.985193 9.275723 -10.957942 3.138854 1.760555 2.231976 -8.276882 -4.943592 -0.768056 1.491169 2.275685 -6.115589 6.703549 -1.788306 10.799771 -1.600845 4.544176 1.394812 6.89992 10.858686 -11.489486 -5.106935 11.613692 -9.11603 -4.437261 -7.515304 -0.764832 -4.371886 3.327469 11.167143 8.981514 -4.351577 9.636561 -5.466371 -3.900993 0.982036 4.593631 2.557789 4.403423 9.761803 4.393654 -2.677763 1.398072 6.295024 -0.355587 -7.812118 3.011249 2.863569 -2.787977 10.611769 7.643276 -4.410104 7.636181 -3.717853 6.611758 1.549355 1.934226 8.450391 -11.767881 5.895159 4.136556 5.300363 -10.331088 -5.901705 -0.830658 7.90673 10.341838 3.490636 -4.276021 -0.205323 -8.931151 -3.864608 -9.473921 0.324415 4.277148 3.635032 -10.059686 10.084804 4.511325 -0.177292 1.120803 11.19136 3.116325 -8.630827 -8.059778 -5.155161 4.371366 -8.826896 -3.2958 -5.282453 -7.500631 -1.011307 -2.818938 -8.304555 -6.125108 10.080297 -0.249646 -4.784942 4.402019 5.779889 3.497078 -9.104841 -7.567946 -6.341035 -1.148029 5.37409 -9.260648 3.612525 -0.0984 -2.775431 4.972029 -10.511328 -4.234494 -10.471268 2.642721 1.983305 -8.538967 7.157116 -1.876957 11.355339 -11.550053 -5.993772 7.253784 -7.896209 5.584369 -5.589738 10.081348 -7.91596 6.442991 8.653491 -0.120626 -8.373504 7.071976 2.970781 -0.987086 6.056837 8.918387 -6.365391 -4.64904 9.602922 -8.732581 -3.312075 0.831596 4.009442 -10.231835 11.593102 -7.56756 -6.732734 2.656048 8.528204 -2.802497 -11.299575 -7.946468 3.272671 11.120035 -7.760427 0.254127 10.585541 4.579341 6.046735 4.168161 -1.309809 -3.321984 -10.257936 1.132227 11.940553 -10.775534 4.319282 4.057635 1.954712 -9.745978 8.422407 3.416659 9.46269 
colectomy/proctectomy 10.880404 3.992322 -8.161205 -6.17381 11.917716 0.377656 -11.887325 -1.350993 -3.888413 -5.159594 1.162739 -1.892274 -4.033463 -3.027355 -6.906805 -6.406695 -11.944951 -9.123365 -10.334779 -4.034956 4.342286 -7.953455 -5.403174 11.179388 -2.541159 7.725973 -5.151792 6.26697 -9.997698 -1.898636 9.578887 4.592196 1.846912 -2.97263 11.736332 8.040657 -3.911018 1.066137 -1.740768 1.240555 -2.345799 -5.541557 -9.347995 11.135297 2.741387 1.230535 -7.789418 10.185305 -7.824305 -0.023534 -0.547081 11.188095 7.392691 -2.058332 -8.66885 -9.833461 -3.826797 2.869419 0.575721 2.986225 -5.602785 -2.342179 -4.954716 7.323724 11.983594 -5.789159 -4.770431 -7.68146 7.830805 10.952869 11.075888 -2.297566 -6.027748 7.312252 -2.916643 0.410772 -4.691698 10.065127 11.132375 -4.358541 4.17549 -7.23313 -0.209673 -10.962014 8.661842 -7.415614 0.857894 -8.865965 -0.024314 -11.321599 -11.306151 0.408024 9.323761 -9.129117 -6.620418 1.256941 -7.34712 -3.331377 5.058093 -4.090304 -3.742177 -7.200049 -6.194401 10.761225 1.656586 -11.74246 -10.832647 11.819467 4.282551 9.426104 -11.987312 -5.081708 3.441568 -7.79016 -1.362219 8.060396 6.63039 3.160304 7.068009 3.715118 7.711334 3.441413 -11.714733 -7.89294 1.586468 -3.94583 8.629005 4.492338 -8.086907 -11.920328 -0.106778 -1.869767 -6.949315 11.784858 -5.334954 2.118944 6.827927 1.271444 8.224016 11.475061 -11.133099 -9.065617 -1.15541 1.797371 4.099923 8.332157 -4.382182 6.566474 2.762965 -6.842877 -9.068361 9.592687 -1.451966 -10.169906 -6.477418 8.335606 3.745325 -2.170746 -8.464795 7.779666 8.104385 5.199454 3.298947 -2.739047 2.791985 -11.226126 0.555568 -7.898524 -11.777189 -8.524032 2.643776 -11.881968 -7.31245 6.655553 -3.328954 -3.966257 7.601351 -8.251171 9.976114 -5.46872 -9.155888 2.638073 7.209057 9.147725 6.062457 1.922673 -6.870723 5.421955 8.951721 4.899099 -10.254803 -9.333622 -6.565325 -1.616621 -9.307138 9.445784 -4.697797 11.595535 -7.225892 -6.692983 
pt3n1a -5.720471 -4.838579 4.348402 -10.485903 -6.369937 -10.12669 -11.204143 10.504372 9.307379 9.186526 -5.45758 7.492221 0.314229 6.515353 3.161605 6.107747 6.325996 10.227397 5.840643 1.168859 -8.215617 -6.178504 -7.9777 -8.353939 7.565588 10.11024 -1.69289 1.590221 -0.024358 4.314064 8.724145 -1.745493 10.224057 -4.190147 -0.748059 -3.147351 -0.324686 -10.1371 3.994595 -11.64342 11.076212 -6.992977 -4.308499 -5.55251 1.605506 -5.17643 3.262634 -1.804771 3.990698 0.705977 1.864719 0.251959 7.085314 2.782501 -5.542928 -7.693123 -6.801611 -0.494353 -1.850687 -1.740238 -9.883638 2.502808 -6.37337 -2.967931 -0.843998 2.118493 -4.278341 -2.854807 6.735418 4.66455 -6.274461 6.156479 -8.151336 0.730631 7.304072 -0.2455 9.47786 10.993171 11.908432 -2.22395 4.37521 7.797023 -1.656768 -2.381765 6.795729 -8.630127 0.678249 -0.52 -10.340073 8.865474 -5.036486 2.578347 -10.725877 2.517677 -5.769074 0.945447 -2.865468 -11.976811 3.038976 -10.376216 10.489673 11.85691 3.340615 -0.962589 4.234098 0.559638 -1.272262 -8.971672 0.354875 4.123887 -5.870828 10.50793 -8.449292 9.439478 -7.187473 11.884429 -1.208007 -5.653487 4.063681 -10.611949 -7.511436 0.179283 9.191113 -4.873204 -8.419685 8.77058 -1.474251 0.166446 -1.735682 6.721841 -8.139599 -1.860532 0.220497 5.33049 -10.703666 -4.151611 -10.903638 -1.098254 -3.262071 5.040143 3.659738 -0.741834 6.299844 -4.011135 8.426841 -3.903941 -1.335485 4.735495 -4.278442 -6.576102 -0.048727 1.79354 11.020119 9.653774 -6.068196 10.841242 8.083906 -8.997137 -2.549901 -0.618637 -10.21853 -1.302157 4.678474 -6.439286 6.649361 -9.938906 2.364726 0.302528 4.139731 5.893508 5.498838 11.615654 7.151175 9.654613 -3.148806 2.405565 2.837666 -2.223305 -9.392401 -1.676972 -6.161098 11.035521 3.849917 0.147298 11.973803 -3.763786 -2.095485 5.911575 -0.912632 -8.44125 4.604199 11.43943 -6.860525 -10.256484 8.282704 -9.828146 11.772733 6.883262 -7.155718 -1.874514 
i&d 2.494836 6.923765 4.52436 -0.46646 -11.740607 3.061425 -3.019341 -4.818107 -8.372415 -2.938038 0.127623 6.663707 5.841465 -5.889672 3.650435 1.736922 -10.961842 8.137878 -1.591658 -5.320127 4.482623 -1.341227 9.960438 9.001251 -8.904865 6.983551 -7.779502 4.071522 8.698012 -4.736293 5.770887 -5.796097 1.304611 -11.842913 0.639028 -3.576111 -0.577987 -6.010168 5.36331 3.627302 -9.262719 -7.873478 0.948799 -2.96227 3.70559 -8.153845 -10.163489 -2.164798 -9.54301 -4.642513 4.283488 0.538845 -7.913023 -6.326785 11.574302 2.187236 4.794501 0.898441 1.258109 -6.428912 -4.520535 -1.925252 -1.871238 7.733835 -7.689776 -7.942794 -10.06105 -1.333361 -4.57999 -2.01247 -1.137217 9.585271 -0.71034 -6.23744 -7.505348 1.387252 11.522453 3.483167 -8.304364 -0.15143 8.615313 -11.795356 -3.127799 -11.169736 -0.020941 4.395548 5.295312 2.226043 8.858816 -10.652078 5.841569 -2.406899 -1.045835 -11.632248 -1.938603 1.369195 2.437017 10.910454 -2.247252 3.29001 2.713649 -8.087876 -2.757778 10.081745 -10.324215 4.403222 -6.651047 -6.285182 -11.665992 0.077293 -0.469963 -4.534471 -4.374717 -6.176728 -3.020287 -2.256589 -3.165244 -3.684133 4.477967 -8.896987 -3.529552 -8.40559 -5.442376 -7.930282 8.57793 -9.853428 6.082493 8.370187 -7.619558 6.349204 4.602496 -2.131052 6.778425 0.20456 -10.124788 -10.026431 -0.359185 3.146052 -7.283339 -10.518187 4.968921 0.273664 -11.132381 6.805093 4.912135 -5.284947 -6.164826 11.213502 -11.736849 9.89433 -6.307325 -6.791394 2.458831 -7.673563 0.594677 -7.65885 -11.738741 -10.85902 -1.713104 1.751745 1.192002 6.875305 -1.835344 4.423555 -10.559004 -4.837434 -11.54328 -3.403071 -9.630059 8.776431 3.884855 7.006883 -5.121491 8.080055 -1.327096 10.565227 2.80012 1.262862 0.05259 5.820136 9.142465 -8.165406 8.436696 8.986843 -11.613602 7.682089 -9.79628 -6.445903 -9.79473 -6.419893 7.561536 9.431974 8.865185 -4.61648 7.231015 9.317532 -3.784874 -4.785911 -10.285969 4.41579 
ypt2n2 -1.425675 4.79101 3.683675 10.864387 -9.027325 4.640317 -0.442035 8.171282 -1.901553 -9.745794 -7.408236 3.685728 1.955987 -7.642747 4.845074 2.583738 -2.365476 -10.727555 -2.840724 -10.939818 10.737637 4.965883 -5.203638 -4.619421 -3.0786 -5.31504 -2.330377 -4.843384 -6.362382 1.190731 -7.882315 1.670326 6.577037 -9.578847 -2.052738 5.282824 8.455848 -5.992187 7.993365 5.924432 9.687215 -6.595335 3.71923 11.373944 -10.87198 8.473279 -0.59842 -8.504258 4.489459 -1.794988 -0.779667 -5.185609 -3.851472 -5.15353 -9.904712 10.767313 -9.004078 -8.96947 -9.614267 2.687017 -3.395746 10.601187 -5.407583 11.025369 10.398993 -10.343627 -3.025314 -10.456723 5.662921 6.918866 -9.480905 1.150113 -7.896647 -0.118675 1.969192 -11.211855 11.35981 1.257451 -1.350356 -1.781828 9.228267 1.107168 -7.408715 7.773513 -1.473456 7.589704 -0.012884 -8.889595 -10.576179 7.634359 -6.717265 6.69385 9.705731 -10.095314 1.228089 -3.781162 -2.15511 -5.732233 -3.009104 -8.622152 -5.104815 -9.433819 -10.04449 -1.65354 7.126559 8.826217 -4.895539 -7.930184 -0.034511 -8.878198 6.903299 7.893659 -4.795235 8.149589 0.382865 -5.705428 1.594651 5.156527 -7.363513 -8.574995 -6.174096 -7.802762 11.223095 -10.100416 -1.436399 -3.215578 7.990635 -9.289822 4.589148 8.831456 -8.392353 10.368095 -8.743731 -7.627701 -6.38573 7.332744 -6.634766 -8.120247 -4.922608 10.497011 -8.791989 -8.910949 -8.041888 3.960574 11.935459 1.069699 -8.926913 4.533271 -7.453874 5.874429 9.054814 -4.628384 -2.305348 -1.569938 -10.010707 -1.137532 11.166206 -3.579003 -4.567009 -7.671199 8.261844 5.75202 -10.715555 -8.656528 -8.511923 -10.23698 -0.490728 -0.602188 -2.157579 5.704169 -11.009175 1.382789 10.635091 -5.933959 0.802124 9.801476 0.185481 11.195097 -5.031819 4.842422 -8.119513 -10.789114 -7.688786 -5.595465 4.980155 -10.422736 6.244759 -10.125024 -6.795386 -4.234144 -0.59396 7.92252 -3.465351 6.28594 -11.210521 -4.220237 6.806728 -10.059149 -7.432408 -10.551482 
apr. 5.581746 -1.493045 -11.940985 2.973647 11.415138 -9.882822 -6.673209 -7.608456 7.054528 11.467002 10.66353 4.170391 -6.760566 -1.453207 6.743456 0.920287 6.676055 7.940253 7.494812 -7.137759 -6.591437 -8.185275 -4.230457 8.005988 -6.793232 -0.434969 8.660561 -4.802478 5.738489 -8.341563 -1.159579 4.158171 -8.806652 6.564298 10.568578 -10.652037 10.673199 -10.262133 -5.962084 11.947012 -0.937203 6.463685 -10.495389 -5.540471 5.242786 9.949904 7.168887 -4.593932 11.405479 -9.599149 -9.952402 -6.719507 -9.11761 -2.118952 7.103079 7.409133 -5.709121 11.619882 2.666065 6.56051 6.955715 0.992003 1.714001 8.114961 0.459825 -3.255484 -1.160576 -4.685569 -8.173111 5.127952 9.766588 -6.426386 -6.763074 8.423912 -5.952072 -6.955384 3.324418 -1.051727 -1.904621 -0.411822 10.006975 -2.055267 -9.024975 -11.984502 -7.559024 3.869426 -0.583017 7.925602 6.099062 -11.596708 -2.734139 -6.325869 10.112785 5.114786 8.120567 3.970406 -2.077837 3.0315 6.185694 7.310495 4.922336 -10.53485 1.380124 8.915015 2.19593 -4.729625 2.521953 -4.948707 7.568201 -10.696316 6.932263 11.580458 -5.879545 -4.815138 -9.926299 -0.719006 -8.05432 -9.450947 0.863285 -5.038812 -6.67125 -3.186293 -4.927745 -9.416127 4.682043 0.07048 0.749279 -5.412217 8.465683 5.048143 5.876699 4.300796 8.970114 -1.82151 5.492998 11.801253 9.237136 -5.366865 7.288059 3.794501 -1.456067 11.785096 -8.798737 -4.967269 4.773129 -4.115073 9.825875 -1.482872 7.640273 -2.172846 10.446643 -11.81772 1.148652 -0.281338 4.310927 -9.026259 8.789732 0.546665 -7.742838 -0.809432 0.905968 4.579791 -5.902142 4.675599 8.281181 -3.778248 -1.822212 11.89717 -2.577875 5.873057 -0.698535 -4.82308 7.143287 -3.057926 -8.25256 -5.720762 -5.034557 -1.517217 5.360371 4.288896 5.486884 7.022422 8.735284 2.16429 -4.715298 -3.021788 2.281864 11.564699 -5.948068 7.648254 -10.519955 3.510876 -6.425191 -11.902336 2.911635 -0.850762 2.802817 7.346904 4.676106 -9.64914 
y.o. 8.662666 0.105248 6.572166 8.087406 -5.584263 9.878232 3.950125 -8.512926 10.257015 -0.386117 0.413525 -5.815423 -3.498069 -2.861542 -1.428058 -10.959904 -3.89401 4.468375 0.820304 -6.486896 8.4105 6.670921 11.643496 11.937893 -2.093861 -8.717691 -0.781527 9.65855 -7.545437 5.377536 -0.890461 -10.557905 -7.193345 -1.777505 -5.374126 0.799426 1.404502 11.024668 -1.066142 9.804627 -8.647424 -10.36528 -10.709875 -9.285825 -3.907941 7.137203 3.784791 3.148477 2.710702 -8.895435 -2.24233 -2.190856 -7.030997 -5.125454 -5.426239 9.666318 -7.978029 1.547027 5.717739 10.261311 11.464153 3.482303 2.190586 -7.76923 -1.275948 10.9187 -11.035044 1.3695 -7.017514 6.9134 -1.220676 6.510017 -9.312095 2.146264 -11.175652 9.207851 -10.609919 -11.787617 1.89839 11.682553 -4.987943 -10.134967 6.382506 -1.324722 -11.17134 -8.743354 -11.0913 2.844799 -3.681667 10.561315 11.868655 -1.965321 0.703461 5.448358 -7.066405 0.205339 11.392818 8.712322 11.529371 0.035635 -4.311793 -9.049193 -10.265707 -11.840472 11.015768 1.517399 0.340696 11.714366 -1.409088 -1.937062 6.844611 -0.66178 -10.175756 -1.185695 -5.098583 -5.035329 -10.075722 4.325818 4.308726 -7.275631 11.051212 0.774302 10.851237 -2.026375 -1.97557 10.954792 -5.634297 -3.068749 10.984856 -6.03019 -0.842397 -8.384237 1.561742 10.191064 9.424556 11.736053 -6.008148 -7.59164 1.614934 10.899514 -11.712493 -6.833531 -10.326414 6.96259 6.94836 8.126613 -0.099993 7.559633 -6.139813 5.875175 3.667743 3.806888 7.922484 9.938188 -5.472765 1.889378 -1.404989 2.84607 -2.762232 -10.300612 -10.048056 6.929043 -7.952392 -0.09382 -2.019337 -1.890422 0.064863 -0.202475 6.760707 -8.705831 -7.164969 11.944562 -7.193198 11.052667 -2.735362 8.202425 -6.741652 9.109341 5.803814 10.770054 10.746182 6.755783 -0.675919 -2.006526 -0.334145 9.63168 2.401067 9.307853 -10.764893 -11.594529 9.735312 9.174503 0.111672 -6.277232 -7.782257 -11.920019 3.49597 -2.623569 3.66986 -6.37464 
pt3n2mx 2.541683 3.988078 0.56209 8.444687 9.545645 -1.423245 -10.962779 8.152579 -7.213066 9.226459 -1.660751 -10.268156 6.033458 -5.349905 11.271436 10.732945 -4.367199 5.783431 8.580759 2.368097 -11.2475 -1.371478 -6.810545 -4.956341 -10.266615 -7.597965 -4.032293 -8.914499 -10.331965 4.629814 3.265026 4.372888 -4.785137 9.165 -8.308707 8.307414 -5.693259 6.192925 -8.338144 4.004432 10.811564 5.121957 -0.005465 3.805371 -6.649455 -2.154604 7.369805 5.170258 11.378499 1.195474 6.738882 -1.279279 -1.721202 -2.503562 -4.212144 -0.335337 6.624115 -11.040364 8.339479 -9.95525 0.902534 -10.75054 10.097613 -9.786202 -0.092995 -4.11505 9.412834 -6.348948 6.634583 4.227775 -4.228928 -0.305672 3.940342 9.643289 -8.519361 -8.026104 -10.660749 11.007234 -6.443572 -3.705058 -11.752228 -11.933335 5.073488 -9.573657 5.605365 -10.750441 4.285647 -10.285495 -0.785478 -4.646456 -8.421748 8.65185 -7.71361 -9.869907 -11.152421 7.490571 3.577478 7.116481 3.172859 6.703133 1.151393 -6.846255 2.67034 2.552012 -3.802033 -11.135196 7.192218 -7.757986 -1.509405 -1.047139 -9.943281 -10.910465 6.96102 -5.483884 3.26905 8.854018 -4.480734 11.660786 -6.283629 -10.162203 7.644831 -10.469653 11.593377 -0.428525 9.423704 2.454852 4.838532 7.862914 -10.3958 -2.739875 0.634402 1.69885 8.89306 -0.137443 5.049011 1.949073 9.111673 -2.88881 -3.331453 7.034085 3.980747 2.424668 -10.404791 -5.321971 3.200162 -6.893366 -0.542602 3.579684 -9.860802 -8.690979 7.102922 -7.70479 0.850767 5.448689 6.419294 0.837285 -9.728302 -9.531259 -6.75134 1.456208 -7.630425 7.671824 -2.361679 -9.220511 -11.354926 7.938652 -2.308747 1.947373 -2.202838 5.980905 4.054465 -5.40732 -11.493035 9.863627 -6.393518 4.474298 -6.805429 7.36816 3.178656 -8.715409 -0.748571 -11.147396 1.16848 -7.38809 7.649494 -10.897295 -7.323529 10.250367 4.976649 2.252055 -9.678325 10.009934 -10.153571 -11.813625 -1.835758 3.890876 -3.721531 -10.067372 -5.813006 11.94749 
perrl 9.044545 3.369621 -6.438691 10.377012 9.123531 3.18272 6.446109 -5.669456 -6.692987 8.321204 6.34218 -5.346255 0.645741 -5.697253 10.047449 7.225995 -10.174446 -3.454541 -9.967655 9.777672 -2.290171 2.493828 10.577745 2.02612 -5.816048 8.640862 -11.708513 6.681808 0.085754 -6.365327 1.64285 -4.662847 9.404278 2.493655 -7.072153 -5.538624 -9.92231 9.540388 11.601593 6.685727 -6.380417 9.000283 8.187497 11.274343 -1.548643 -7.703024 2.996397 1.136935 9.216803 -10.087616 -0.337743 -4.04955 -9.496558 -0.734738 2.024437 1.917771 4.293631 -3.601905 -11.839981 -7.597509 -9.883144 -5.651992 1.393072 -7.860316 7.273102 8.913413 2.881224 -3.066412 1.645588 -8.886042 1.903298 -1.285992 9.519645 -3.022641 -1.754761 -11.46579 -8.52711 9.372568 -11.895012 -10.44599 -7.199652 -0.555286 -11.289614 -7.737312 5.086559 8.793172 -0.632349 -10.842689 -11.564812 7.870048 -10.068623 7.802977 -2.484946 -6.837675 7.710475 7.662427 -11.020026 -6.44318 8.597894 1.293418 -7.031792 4.873087 -8.264608 8.473183 -4.714234 -7.11472 -6.701914 -3.479762 -4.473728 -0.760014 2.006925 1.544743 7.778486 3.51293 0.750695 -4.430449 -9.278941 2.233415 -4.777443 -4.57498 -7.197481 2.041298 -2.250388 -6.968393 -0.147082 1.227217 -11.482617 3.145195 4.872015 -8.257234 -2.835441 -6.148967 10.887307 8.353196 11.246784 -8.946877 3.673655 -5.058792 8.341696 -1.083179 -0.225306 -1.943684 9.590886 1.683343 -9.335361 6.640186 8.247861 0.485816 -1.962437 2.444336 9.324535 -8.242532 -7.890367 3.992458 1.702227 11.533441 0.468247 6.025625 8.09656 -11.591299 -2.599564 -7.795463 5.039106 -8.87457 -7.218644 7.42891 10.562059 -3.275789 -8.497896 1.470068 9.54565 -10.095702 1.064546 -2.301291 1.711459 9.699136 10.369296 3.52576 11.018214 5.78431 -1.128623 -5.239801 -4.259889 -2.304041 10.176587 10.423619 5.781115 5.9487 -6.199995 -8.352732 -8.197845 0.502998 -4.793516 0.113254 3.511545 1.242875 -2.598523 -5.912506 9.992417 -4.914222 
ypt3n0 -8.761082 -8.572022 -6.785615 -6.942619 -3.738648 -6.962186 2.900082 10.125012 9.285947 -2.931522 -3.309322 2.79435 0.098421 11.76463 -3.922106 4.434962 6.515423 -2.822214 -10.156509 -7.988798 8.724259 -10.937915 0.77063 -7.644084 1.207375 10.101313 6.164944 -8.664657 9.707378 10.202291 -7.753388 -6.785459 0.58686 6.925688 -1.251867 -5.756397 4.585708 11.211219 -10.924018 11.945852 6.377018 -1.609837 3.167704 -6.199825 -4.528825 8.064048 10.699515 -0.029448 8.916105 4.764315 -2.427163 -5.553198 -10.109882 -11.606329 8.631707 -8.5785 6.682235 9.285819 -9.663626 4.938951 -8.296707 1.306158 -7.358114 -8.186957 -1.930416 1.752018 7.603858 0.521748 -0.050782 2.896886 3.257105 -5.753028 -5.740184 8.859063 -4.913788 -7.560609 -4.545387 5.061108 -4.069437 0.248847 -11.967538 -10.11765 -9.560167 -11.128177 -2.944331 1.192714 -3.780702 0.328447 11.358033 10.292027 -7.422163 -2.6076 11.273918 -11.635091 3.314909 -4.641913 -11.382425 7.897298 -7.743808 9.040293 -6.709564 3.586587 -10.728934 1.862559 10.292459 8.113297 10.278522 6.101401 -8.937863 1.728138 11.271525 -9.685555 1.96812 -5.055737 -4.336699 -6.308496 2.423913 8.710433 4.282446 -0.471458 1.495522 -5.723224 -5.882791 -10.764593 -6.979651 5.550743 3.432719 4.249173 7.154084 -3.923201 -4.841623 5.935841 0.910796 -11.140653 -8.533927 7.024109 -2.34018 -3.915714 0.233299 0.325849 -4.308478 11.380574 -11.39128 -8.541139 10.862439 11.599089 -3.828864 -0.001574 5.978706 -11.827985 0.196266 3.9451 5.975176 3.951929 4.319177 9.60715 3.096021 -3.984311 -4.596349 -11.043057 8.181068 6.254179 -2.296801 -4.768435 -5.18944 -0.345122 0.421875 -6.991137 8.459457 -6.979807 -11.443512 -10.798948 -3.039153 8.450396 11.425239 -9.631033 9.476456 -5.744038 -5.438753 3.470956 -11.179305 -6.949945 -9.327128 5.621398 -9.616874 2.60781 6.146173 -2.355304 -11.957357 1.665044 -0.911715 -9.828394 1.365124 -3.835088 11.183925 9.735637 3.024744 9.547013 -3.339307 -4.211756 
